digraph Tree {
node [shape=box] ;
0 [label="X[2] <= 26.5\nentropy = 0.2403\nsamples = 76020\nvalue = [73012, 3008]"] ;
1 [label="X[329] <= 1.575\nentropy = 0.0834\nsamples = 35101\nvalue = [34736, 365]"] ;
0 -> 1 [labeldistance=2.5, labelangle=45, headlabel="True"] ;
2 [label="X[369] <= 56980.3945\nentropy = 0.1505\nsamples = 10447\nvalue = [10221, 226]"] ;
1 -> 2 ;
3 [label="X[0] <= 9520.0\nentropy = 0.2864\nsamples = 1360\nvalue = [1292, 68]"] ;
2 -> 3 ;
4 [label="entropy = 0.0\nsamples = 96\nvalue = [96, 0]"] ;
3 -> 4 ;
5 [label="X[325] <= 7.5\nentropy = 0.3023\nsamples = 1264\nvalue = [1196, 68]"] ;
3 -> 5 ;
6 [label="X[2] <= 23.5\nentropy = 0.2866\nsamples = 1239\nvalue = [1177, 62]"] ;
5 -> 6 ;
7 [label="X[278] <= 1.5\nentropy = 0.2348\nsamples = 886\nvalue = [852, 34]"] ;
6 -> 7 ;
8 [label="X[0] <= 9726.5\nentropy = 0.2062\nsamples = 834\nvalue = [807, 27]"] ;
7 -> 8 ;
9 [label="entropy = 0.0\nsamples = 1\nvalue = [0, 1]"] ;
8 -> 9 ;
10 [label="X[369] <= 56961.6289\nentropy = 0.2004\nsamples = 833\nvalue = [807, 26]"] ;
8 -> 10 ;
11 [label="X[329] <= 0.975\nentropy = 0.1946\nsamples = 832\nvalue = [807, 25]"] ;
10 -> 11 ;
12 [label="X[369] <= 13669.4707\nentropy = 0.1838\nsamples = 824\nvalue = [801, 23]"] ;
11 -> 12 ;
13 [label="X[0] <= 82678.5\nentropy = 1.0\nsamples = 2\nvalue = [1, 1]"] ;
12 -> 13 ;
14 [label="entropy = 0.0\nsamples = 1\nvalue = [1, 0]"] ;
13 -> 14 ;
15 [label="entropy = 0.0\nsamples = 1\nvalue = [0, 1]"] ;
13 -> 15 ;
16 [label="X[369] <= 35883.4648\nentropy = 0.1779\nsamples = 822\nvalue = [800, 22]"] ;
12 -> 16 ;
17 [label="X[369] <= 23716.1094\nentropy = 0.0489\nsamples = 183\nvalue = [182, 1]"] ;
16 -> 17 ;
18 [label="X[369] <= 23339.25\nentropy = 0.1914\nsamples = 34\nvalue = [33, 1]"] ;
17 -> 18 ;
19 [label="entropy = 0.0\nsamples = 33\nvalue = [33, 0]"] ;
18 -> 19 ;
20 [label="entropy = 0.0\nsamples = 1\nvalue = [0, 1]"] ;
18 -> 20 ;
21 [label="entropy = 0.0\nsamples = 149\nvalue = [149, 0]"] ;
17 -> 21 ;
22 [label="X[369] <= 35941.5156\nentropy = 0.2086\nsamples = 639\nvalue = [618, 21]"] ;
16 -> 22 ;
23 [label="entropy = 0.0\nsamples = 1\nvalue = [0, 1]"] ;
22 -> 23 ;
24 [label="X[0] <= 26975.5\nentropy = 0.2011\nsamples = 638\nvalue = [618, 20]"] ;
22 -> 24 ;
25 [label="entropy = 0.0\nsamples = 77\nvalue = [77, 0]"] ;
24 -> 25 ;
26 [label="X[0] <= 27182.0\nentropy = 0.222\nsamples = 561\nvalue = [541, 20]"] ;
24 -> 26 ;
27 [label="entropy = 0.0\nsamples = 1\nvalue = [0, 1]"] ;
26 -> 27 ;
28 [label="X[369] <= 46096.0938\nentropy = 0.2137\nsamples = 560\nvalue = [541, 19]"] ;
26 -> 28 ;
29 [label="X[369] <= 46075.9961\nentropy = 0.2927\nsamples = 233\nvalue = [221, 12]"] ;
28 -> 29 ;
30 [label="X[0] <= 48954.5\nentropy = 0.2753\nsamples = 232\nvalue = [221, 11]"] ;
29 -> 30 ;
31 [label="entropy = 0.0\nsamples = 43\nvalue = [43, 0]"] ;
30 -> 31 ;
32 [label="X[0] <= 49627.0\nentropy = 0.3203\nsamples = 189\nvalue = [178, 11]"] ;
30 -> 32 ;
33 [label="X[152] <= 1.5\nentropy = 1.0\nsamples = 4\nvalue = [2, 2]"] ;
32 -> 33 ;
34 [label="entropy = 0.0\nsamples = 1\nvalue = [0, 1]"] ;
33 -> 34 ;
35 [label="X[0] <= 49086.0\nentropy = 0.9183\nsamples = 3\nvalue = [2, 1]"] ;
33 -> 35 ;
36 [label="entropy = 0.0\nsamples = 2\nvalue = [2, 0]"] ;
35 -> 36 ;
37 [label="entropy = 0.0\nsamples = 1\nvalue = [0, 1]"] ;
35 -> 37 ;
38 [label="X[290] <= 1.5\nentropy = 0.2806\nsamples = 185\nvalue = [176, 9]"] ;
32 -> 38 ;
39 [label="entropy = 0.0\nsamples = 45\nvalue = [45, 0]"] ;
38 -> 39 ;
40 [label="X[0] <= 146043.0\nentropy = 0.3442\nsamples = 140\nvalue = [131, 9]"] ;
38 -> 40 ;
41 [label="X[0] <= 125324.5\nentropy = 0.2958\nsamples = 134\nvalue = [127, 7]"] ;
40 -> 41 ;
42 [label="X[0] <= 124880.5\nentropy = 0.3463\nsamples = 108\nvalue = [101, 7]"] ;
41 -> 42 ;
43 [label="X[369] <= 40166.1602\nentropy = 0.3117\nsamples = 107\nvalue = [101, 6]"] ;
42 -> 43 ;
44 [label="entropy = 0.0\nsamples = 31\nvalue = [31, 0]"] ;
43 -> 44 ;
45 [label="X[369] <= 40302.4922\nentropy = 0.3985\nsamples = 76\nvalue = [70, 6]"] ;
43 -> 45 ;
46 [label="entropy = 0.0\nsamples = 1\nvalue = [0, 1]"] ;
45 -> 46 ;
47 [label="X[369] <= 42002.9102\nentropy = 0.3534\nsamples = 75\nvalue = [70, 5]"] ;
45 -> 47 ;
48 [label="entropy = 0.0\nsamples = 19\nvalue = [19, 0]"] ;
47 -> 48 ;
49 [label="X[369] <= 42063.8242\nentropy = 0.4341\nsamples = 56\nvalue = [51, 5]"] ;
47 -> 49 ;
50 [label="entropy = 0.0\nsamples = 1\nvalue = [0, 1]"] ;
49 -> 50 ;
51 [label="X[369] <= 43288.8281\nentropy = 0.376\nsamples = 55\nvalue = [51, 4]"] ;
49 -> 51 ;
52 [label="entropy = 0.0\nsamples = 13\nvalue = [13, 0]"] ;
51 -> 52 ;
53 [label="X[369] <= 43354.8438\nentropy = 0.4537\nsamples = 42\nvalue = [38, 4]"] ;
51 -> 53 ;
54 [label="entropy = 0.0\nsamples = 1\nvalue = [0, 1]"] ;
53 -> 54 ;
55 [label="X[369] <= 44304.3906\nentropy = 0.3776\nsamples = 41\nvalue = [38, 3]"] ;
53 -> 55 ;
56 [label="entropy = 0.0\nsamples = 15\nvalue = [15, 0]"] ;
55 -> 56 ;
57 [label="X[369] <= 44456.8047\nentropy = 0.5159\nsamples = 26\nvalue = [23, 3]"] ;
55 -> 57 ;
58 [label="entropy = 0.0\nsamples = 1\nvalue = [0, 1]"] ;
57 -> 58 ;
59 [label="X[0] <= 101301.0\nentropy = 0.4022\nsamples = 25\nvalue = [23, 2]"] ;
57 -> 59 ;
60 [label="entropy = 0.0\nsamples = 12\nvalue = [12, 0]"] ;
59 -> 60 ;
61 [label="X[0] <= 102858.0\nentropy = 0.6194\nsamples = 13\nvalue = [11, 2]"] ;
59 -> 61 ;
62 [label="entropy = 0.0\nsamples = 1\nvalue = [0, 1]"] ;
61 -> 62 ;
63 [label="X[369] <= 45744.0898\nentropy = 0.4138\nsamples = 12\nvalue = [11, 1]"] ;
61 -> 63 ;
64 [label="entropy = 0.0\nsamples = 9\nvalue = [9, 0]"] ;
63 -> 64 ;
65 [label="X[369] <= 45784.2422\nentropy = 0.9183\nsamples = 3\nvalue = [2, 1]"] ;
63 -> 65 ;
66 [label="entropy = 0.0\nsamples = 1\nvalue = [0, 1]"] ;
65 -> 66 ;
67 [label="entropy = 0.0\nsamples = 2\nvalue = [2, 0]"] ;
65 -> 67 ;
68 [label="entropy = 0.0\nsamples = 1\nvalue = [0, 1]"] ;
42 -> 68 ;
69 [label="entropy = 0.0\nsamples = 26\nvalue = [26, 0]"] ;
41 -> 69 ;
70 [label="X[369] <= 42665.3086\nentropy = 0.9183\nsamples = 6\nvalue = [4, 2]"] ;
40 -> 70 ;
71 [label="X[0] <= 149801.0\nentropy = 0.9183\nsamples = 3\nvalue = [1, 2]"] ;
70 -> 71 ;
72 [label="entropy = 0.0\nsamples = 2\nvalue = [0, 2]"] ;
71 -> 72 ;
73 [label="entropy = 0.0\nsamples = 1\nvalue = [1, 0]"] ;
71 -> 73 ;
74 [label="entropy = 0.0\nsamples = 3\nvalue = [3, 0]"] ;
70 -> 74 ;
75 [label="entropy = 0.0\nsamples = 1\nvalue = [0, 1]"] ;
29 -> 75 ;
76 [label="X[369] <= 54282.4648\nentropy = 0.1493\nsamples = 327\nvalue = [320, 7]"] ;
28 -> 76 ;
77 [label="X[0] <= 101497.0\nentropy = 0.072\nsamples = 230\nvalue = [228, 2]"] ;
76 -> 77 ;
78 [label="entropy = 0.0\nsamples = 128\nvalue = [128, 0]"] ;
77 -> 78 ;
79 [label="X[0] <= 102214.0\nentropy = 0.1392\nsamples = 102\nvalue = [100, 2]"] ;
77 -> 79 ;
80 [label="entropy = 0.0\nsamples = 1\nvalue = [0, 1]"] ;
79 -> 80 ;
81 [label="X[0] <= 143888.5\nentropy = 0.0801\nsamples = 101\nvalue = [100, 1]"] ;
79 -> 81 ;
82 [label="entropy = 0.0\nsamples = 88\nvalue = [88, 0]"] ;
81 -> 82 ;
83 [label="X[0] <= 145297.0\nentropy = 0.3912\nsamples = 13\nvalue = [12, 1]"] ;
81 -> 83 ;
84 [label="entropy = 0.0\nsamples = 1\nvalue = [0, 1]"] ;
83 -> 84 ;
85 [label="entropy = 0.0\nsamples = 12\nvalue = [12, 0]"] ;
83 -> 85 ;
86 [label="X[369] <= 54339.9766\nentropy = 0.2929\nsamples = 97\nvalue = [92, 5]"] ;
76 -> 86 ;
87 [label="entropy = 0.0\nsamples = 1\nvalue = [0, 1]"] ;
86 -> 87 ;
88 [label="X[369] <= 54871.5625\nentropy = 0.2499\nsamples = 96\nvalue = [92, 4]"] ;
86 -> 88 ;
89 [label="entropy = 0.0\nsamples = 25\nvalue = [25, 0]"] ;
88 -> 89 ;
90 [label="X[369] <= 54903.0313\nentropy = 0.3127\nsamples = 71\nvalue = [67, 4]"] ;
88 -> 90 ;
91 [label="entropy = 0.0\nsamples = 1\nvalue = [0, 1]"] ;
90 -> 91 ;
92 [label="X[369] <= 55963.7539\nentropy = 0.2552\nsamples = 70\nvalue = [67, 3]"] ;
90 -> 92 ;
93 [label="entropy = 0.0\nsamples = 31\nvalue = [31, 0]"] ;
92 -> 93 ;
94 [label="X[369] <= 55982.5781\nentropy = 0.3912\nsamples = 39\nvalue = [36, 3]"] ;
92 -> 94 ;
95 [label="entropy = 0.0\nsamples = 1\nvalue = [0, 1]"] ;
94 -> 95 ;
96 [label="X[0] <= 74722.5\nentropy = 0.2975\nsamples = 38\nvalue = [36, 2]"] ;
94 -> 96 ;
97 [label="X[0] <= 69962.5\nentropy = 0.7219\nsamples = 10\nvalue = [8, 2]"] ;
96 -> 97 ;
98 [label="X[290] <= 1.5\nentropy = 0.5033\nsamples = 9\nvalue = [8, 1]"] ;
97 -> 98 ;
99 [label="X[155] <= 1.5\nentropy = 0.8113\nsamples = 4\nvalue = [3, 1]"] ;
98 -> 99 ;
100 [label="entropy = 0.0\nsamples = 3\nvalue = [3, 0]"] ;
99 -> 100 ;
101 [label="entropy = 0.0\nsamples = 1\nvalue = [0, 1]"] ;
99 -> 101 ;
102 [label="entropy = 0.0\nsamples = 5\nvalue = [5, 0]"] ;
98 -> 102 ;
103 [label="entropy = 0.0\nsamples = 1\nvalue = [0, 1]"] ;
97 -> 103 ;
104 [label="entropy = 0.0\nsamples = 28\nvalue = [28, 0]"] ;
96 -> 104 ;
105 [label="X[329] <= 1.38\nentropy = 0.8113\nsamples = 8\nvalue = [6, 2]"] ;
11 -> 105 ;
106 [label="X[369] <= 42395.7891\nentropy = 1.0\nsamples = 4\nvalue = [2, 2]"] ;
105 -> 106 ;
107 [label="entropy = 0.0\nsamples = 2\nvalue = [2, 0]"] ;
106 -> 107 ;
108 [label="entropy = 0.0\nsamples = 2\nvalue = [0, 2]"] ;
106 -> 108 ;
109 [label="entropy = 0.0\nsamples = 4\nvalue = [4, 0]"] ;
105 -> 109 ;
110 [label="entropy = 0.0\nsamples = 1\nvalue = [0, 1]"] ;
10 -> 110 ;
111 [label="X[327] <= 1.5\nentropy = 0.57\nsamples = 52\nvalue = [45, 7]"] ;
7 -> 111 ;
112 [label="X[0] <= 41536.5\nentropy = 0.8404\nsamples = 26\nvalue = [19, 7]"] ;
111 -> 112 ;
113 [label="entropy = 0.0\nsamples = 4\nvalue = [4, 0]"] ;
112 -> 113 ;
114 [label="X[0] <= 142432.5\nentropy = 0.9024\nsamples = 22\nvalue = [15, 7]"] ;
112 -> 114 ;
115 [label="X[369] <= 35613.2578\nentropy = 0.9495\nsamples = 19\nvalue = [12, 7]"] ;
114 -> 115 ;
116 [label="entropy = 0.0\nsamples = 2\nvalue = [0, 2]"] ;
115 -> 116 ;
117 [label="X[369] <= 56414.7031\nentropy = 0.874\nsamples = 17\nvalue = [12, 5]"] ;
115 -> 117 ;
118 [label="X[0] <= 135375.0\nentropy = 0.8113\nsamples = 16\nvalue = [12, 4]"] ;
117 -> 118 ;
119 [label="X[0] <= 81366.0\nentropy = 0.7219\nsamples = 15\nvalue = [12, 3]"] ;
118 -> 119 ;
120 [label="entropy = 0.0\nsamples = 4\nvalue = [4, 0]"] ;
119 -> 120 ;
121 [label="X[0] <= 83328.5\nentropy = 0.8454\nsamples = 11\nvalue = [8, 3]"] ;
119 -> 121 ;
122 [label="entropy = 0.0\nsamples = 1\nvalue = [0, 1]"] ;
121 -> 122 ;
123 [label="X[0] <= 91148.5\nentropy = 0.7219\nsamples = 10\nvalue = [8, 2]"] ;
121 -> 123 ;
124 [label="entropy = 0.0\nsamples = 4\nvalue = [4, 0]"] ;
123 -> 124 ;
125 [label="X[0] <= 103851.0\nentropy = 0.9183\nsamples = 6\nvalue = [4, 2]"] ;
123 -> 125 ;
126 [label="X[277] <= 1.5\nentropy = 0.9183\nsamples = 3\nvalue = [1, 2]"] ;
125 -> 126 ;
127 [label="entropy = 0.0\nsamples = 2\nvalue = [0, 2]"] ;
126 -> 127 ;
128 [label="entropy = 0.0\nsamples = 1\nvalue = [1, 0]"] ;
126 -> 128 ;
129 [label="entropy = 0.0\nsamples = 3\nvalue = [3, 0]"] ;
125 -> 129 ;
130 [label="entropy = 0.0\nsamples = 1\nvalue = [0, 1]"] ;
118 -> 130 ;
131 [label="entropy = 0.0\nsamples = 1\nvalue = [0, 1]"] ;
117 -> 131 ;
132 [label="entropy = 0.0\nsamples = 3\nvalue = [3, 0]"] ;
114 -> 132 ;
133 [label="entropy = 0.0\nsamples = 26\nvalue = [26, 0]"] ;
111 -> 133 ;
134 [label="X[281] <= 0.5\nentropy = 0.3998\nsamples = 353\nvalue = [325, 28]"] ;
6 -> 134 ;
135 [label="X[369] <= 55006.9805\nentropy = 0.429\nsamples = 319\nvalue = [291, 28]"] ;
134 -> 135 ;
136 [label="X[276] <= 4.5\nentropy = 0.4601\nsamples = 288\nvalue = [260, 28]"] ;
135 -> 136 ;
137 [label="X[369] <= 32085.5859\nentropy = 0.4499\nsamples = 287\nvalue = [260, 27]"] ;
136 -> 137 ;
138 [label="entropy = 0.0\nsamples = 25\nvalue = [25, 0]"] ;
137 -> 138 ;
139 [label="X[369] <= 32728.7539\nentropy = 0.4786\nsamples = 262\nvalue = [235, 27]"] ;
137 -> 139 ;
140 [label="entropy = 0.0\nsamples = 1\nvalue = [0, 1]"] ;
139 -> 140 ;
141 [label="X[290] <= 1.5\nentropy = 0.4678\nsamples = 261\nvalue = [235, 26]"] ;
139 -> 141 ;
142 [label="X[0] <= 48336.0\nentropy = 0.1982\nsamples = 65\nvalue = [63, 2]"] ;
141 -> 142 ;
143 [label="X[0] <= 34620.0\nentropy = 0.5226\nsamples = 17\nvalue = [15, 2]"] ;
142 -> 143 ;
144 [label="entropy = 0.0\nsamples = 12\nvalue = [12, 0]"] ;
143 -> 144 ;
145 [label="X[2] <= 25.0\nentropy = 0.971\nsamples = 5\nvalue = [3, 2]"] ;
143 -> 145 ;
146 [label="entropy = 0.0\nsamples = 2\nvalue = [0, 2]"] ;
145 -> 146 ;
147 [label="entropy = 0.0\nsamples = 3\nvalue = [3, 0]"] ;
145 -> 147 ;
148 [label="entropy = 0.0\nsamples = 48\nvalue = [48, 0]"] ;
142 -> 148 ;
149 [label="X[326] <= 1.5\nentropy = 0.5364\nsamples = 196\nvalue = [172, 24]"] ;
141 -> 149 ;
150 [label="X[369] <= 54918.6719\nentropy = 0.5234\nsamples = 195\nvalue = [172, 23]"] ;
149 -> 150 ;
151 [label="X[369] <= 53291.7422\nentropy = 0.5101\nsamples = 194\nvalue = [172, 22]"] ;
150 -> 151 ;
152 [label="X[94] <= 1.5\nentropy = 0.5416\nsamples = 177\nvalue = [155, 22]"] ;
151 -> 152 ;
153 [label="X[0] <= 107803.5\nentropy = 0.5274\nsamples = 176\nvalue = [155, 21]"] ;
152 -> 153 ;
154 [label="X[0] <= 105634.5\nentropy = 0.6089\nsamples = 127\nvalue = [108, 19]"] ;
153 -> 154 ;
155 [label="X[369] <= 33840.2852\nentropy = 0.5917\nsamples = 126\nvalue = [108, 18]"] ;
154 -> 155 ;
156 [label="entropy = 0.0\nsamples = 1\nvalue = [0, 1]"] ;
155 -> 156 ;
157 [label="X[369] <= 53216.1719\nentropy = 0.5737\nsamples = 125\nvalue = [108, 17]"] ;
155 -> 157 ;
158 [label="X[0] <= 50559.0\nentropy = 0.5548\nsamples = 124\nvalue = [108, 16]"] ;
157 -> 158 ;
159 [label="X[0] <= 34610.5\nentropy = 0.6913\nsamples = 54\nvalue = [44, 10]"] ;
158 -> 159 ;
160 [label="X[369] <= 47120.8828\nentropy = 0.316\nsamples = 35\nvalue = [33, 2]"] ;
159 -> 160 ;
161 [label="X[369] <= 46884.5859\nentropy = 0.4855\nsamples = 19\nvalue = [17, 2]"] ;
160 -> 161 ;
162 [label="X[325] <= 1.5\nentropy = 0.3095\nsamples = 18\nvalue = [17, 1]"] ;
161 -> 162 ;
163 [label="entropy = 0.0\nsamples = 15\nvalue = [15, 0]"] ;
162 -> 163 ;
164 [label="X[369] <= 40946.9531\nentropy = 0.9183\nsamples = 3\nvalue = [2, 1]"] ;
162 -> 164 ;
165 [label="entropy = 0.0\nsamples = 1\nvalue = [0, 1]"] ;
164 -> 165 ;
166 [label="entropy = 0.0\nsamples = 2\nvalue = [2, 0]"] ;
164 -> 166 ;
167 [label="entropy = 0.0\nsamples = 1\nvalue = [0, 1]"] ;
161 -> 167 ;
168 [label="entropy = 0.0\nsamples = 16\nvalue = [16, 0]"] ;
160 -> 168 ;
169 [label="X[369] <= 50904.5078\nentropy = 0.9819\nsamples = 19\nvalue = [11, 8]"] ;
159 -> 169 ;
170 [label="X[0] <= 45367.0\nentropy = 0.896\nsamples = 16\nvalue = [11, 5]"] ;
169 -> 170 ;
171 [label="X[0] <= 42889.0\nentropy = 1.0\nsamples = 10\nvalue = [5, 5]"] ;
170 -> 171 ;
172 [label="X[369] <= 41769.6719\nentropy = 0.8113\nsamples = 4\nvalue = [3, 1]"] ;
171 -> 172 ;
173 [label="entropy = 0.0\nsamples = 1\nvalue = [0, 1]"] ;
172 -> 173 ;
174 [label="entropy = 0.0\nsamples = 3\nvalue = [3, 0]"] ;
172 -> 174 ;
175 [label="X[369] <= 35806.9961\nentropy = 0.9183\nsamples = 6\nvalue = [2, 4]"] ;
171 -> 175 ;
176 [label="entropy = 0.0\nsamples = 1\nvalue = [1, 0]"] ;
175 -> 176 ;
177 [label="X[0] <= 43530.0\nentropy = 0.7219\nsamples = 5\nvalue = [1, 4]"] ;
175 -> 177 ;
178 [label="X[369] <= 38303.8359\nentropy = 1.0\nsamples = 2\nvalue = [1, 1]"] ;
177 -> 178 ;
179 [label="entropy = 0.0\nsamples = 1\nvalue = [0, 1]"] ;
178 -> 179 ;
180 [label="entropy = 0.0\nsamples = 1\nvalue = [1, 0]"] ;
178 -> 180 ;
181 [label="entropy = 0.0\nsamples = 3\nvalue = [0, 3]"] ;
177 -> 181 ;
182 [label="entropy = 0.0\nsamples = 6\nvalue = [6, 0]"] ;
170 -> 182 ;
183 [label="entropy = 0.0\nsamples = 3\nvalue = [0, 3]"] ;
169 -> 183 ;
184 [label="X[0] <= 78425.5\nentropy = 0.422\nsamples = 70\nvalue = [64, 6]"] ;
158 -> 184 ;
185 [label="entropy = 0.0\nsamples = 33\nvalue = [33, 0]"] ;
184 -> 185 ;
186 [label="X[369] <= 36214.9766\nentropy = 0.6395\nsamples = 37\nvalue = [31, 6]"] ;
184 -> 186 ;
187 [label="X[2] <= 25.0\nentropy = 0.9183\nsamples = 3\nvalue = [1, 2]"] ;
186 -> 187 ;
188 [label="entropy = 0.0\nsamples = 2\nvalue = [0, 2]"] ;
187 -> 188 ;
189 [label="entropy = 0.0\nsamples = 1\nvalue = [1, 0]"] ;
187 -> 189 ;
190 [label="X[0] <= 79153.0\nentropy = 0.5226\nsamples = 34\nvalue = [30, 4]"] ;
186 -> 190 ;
191 [label="entropy = 0.0\nsamples = 1\nvalue = [0, 1]"] ;
190 -> 191 ;
192 [label="X[0] <= 87776.5\nentropy = 0.4395\nsamples = 33\nvalue = [30, 3]"] ;
190 -> 192 ;
193 [label="entropy = 0.0\nsamples = 14\nvalue = [14, 0]"] ;
192 -> 193 ;
194 [label="X[0] <= 89411.0\nentropy = 0.6292\nsamples = 19\nvalue = [16, 3]"] ;
192 -> 194 ;
195 [label="X[369] <= 46608.5703\nentropy = 0.9183\nsamples = 3\nvalue = [1, 2]"] ;
194 -> 195 ;
196 [label="entropy = 0.0\nsamples = 2\nvalue = [0, 2]"] ;
195 -> 196 ;
197 [label="entropy = 0.0\nsamples = 1\nvalue = [1, 0]"] ;
195 -> 197 ;
198 [label="X[0] <= 97322.5\nentropy = 0.3373\nsamples = 16\nvalue = [15, 1]"] ;
194 -> 198 ;
199 [label="entropy = 0.0\nsamples = 9\nvalue = [9, 0]"] ;
198 -> 199 ;
200 [label="X[0] <= 97680.5\nentropy = 0.5917\nsamples = 7\nvalue = [6, 1]"] ;
198 -> 200 ;
201 [label="entropy = 0.0\nsamples = 1\nvalue = [0, 1]"] ;
200 -> 201 ;
202 [label="entropy = 0.0\nsamples = 6\nvalue = [6, 0]"] ;
200 -> 202 ;
203 [label="entropy = 0.0\nsamples = 1\nvalue = [0, 1]"] ;
157 -> 203 ;
204 [label="entropy = 0.0\nsamples = 1\nvalue = [0, 1]"] ;
154 -> 204 ;
205 [label="X[369] <= 46693.5781\nentropy = 0.246\nsamples = 49\nvalue = [47, 2]"] ;
153 -> 205 ;
206 [label="entropy = 0.0\nsamples = 22\nvalue = [22, 0]"] ;
205 -> 206 ;
207 [label="X[369] <= 47428.8164\nentropy = 0.3809\nsamples = 27\nvalue = [25, 2]"] ;
205 -> 207 ;
208 [label="entropy = 0.0\nsamples = 1\nvalue = [0, 1]"] ;
207 -> 208 ;
209 [label="X[369] <= 52046.1875\nentropy = 0.2352\nsamples = 26\nvalue = [25, 1]"] ;
207 -> 209 ;
210 [label="entropy = 0.0\nsamples = 21\nvalue = [21, 0]"] ;
209 -> 210 ;
211 [label="X[369] <= 52341.1797\nentropy = 0.7219\nsamples = 5\nvalue = [4, 1]"] ;
209 -> 211 ;
212 [label="entropy = 0.0\nsamples = 1\nvalue = [0, 1]"] ;
211 -> 212 ;
213 [label="entropy = 0.0\nsamples = 4\nvalue = [4, 0]"] ;
211 -> 213 ;
214 [label="entropy = 0.0\nsamples = 1\nvalue = [0, 1]"] ;
152 -> 214 ;
215 [label="entropy = 0.0\nsamples = 17\nvalue = [17, 0]"] ;
151 -> 215 ;
216 [label="entropy = 0.0\nsamples = 1\nvalue = [0, 1]"] ;
150 -> 216 ;
217 [label="entropy = 0.0\nsamples = 1\nvalue = [0, 1]"] ;
149 -> 217 ;
218 [label="entropy = 0.0\nsamples = 1\nvalue = [0, 1]"] ;
136 -> 218 ;
219 [label="entropy = 0.0\nsamples = 31\nvalue = [31, 0]"] ;
135 -> 219 ;
220 [label="entropy = 0.0\nsamples = 34\nvalue = [34, 0]"] ;
134 -> 220 ;
221 [label="X[329] <= 0.585\nentropy = 0.795\nsamples = 25\nvalue = [19, 6]"] ;
5 -> 221 ;
222 [label="X[369] <= 39345.4219\nentropy = 0.5226\nsamples = 17\nvalue = [15, 2]"] ;
221 -> 222 ;
223 [label="X[369] <= 34083.6758\nentropy = 0.8113\nsamples = 8\nvalue = [6, 2]"] ;
222 -> 223 ;
224 [label="entropy = 0.0\nsamples = 5\nvalue = [5, 0]"] ;
223 -> 224 ;
225 [label="X[91] <= 1.5\nentropy = 0.9183\nsamples = 3\nvalue = [1, 2]"] ;
223 -> 225 ;
226 [label="entropy = 0.0\nsamples = 2\nvalue = [0, 2]"] ;
225 -> 226 ;
227 [label="entropy = 0.0\nsamples = 1\nvalue = [1, 0]"] ;
225 -> 227 ;
228 [label="entropy = 0.0\nsamples = 9\nvalue = [9, 0]"] ;
222 -> 228 ;
229 [label="X[327] <= 33.0\nentropy = 1.0\nsamples = 8\nvalue = [4, 4]"] ;
221 -> 229 ;
230 [label="entropy = 0.0\nsamples = 3\nvalue = [3, 0]"] ;
229 -> 230 ;
231 [label="X[77] <= 0.5\nentropy = 0.7219\nsamples = 5\nvalue = [1, 4]"] ;
229 -> 231 ;
232 [label="entropy = 0.0\nsamples = 1\nvalue = [1, 0]"] ;
231 -> 232 ;
233 [label="entropy = 0.0\nsamples = 4\nvalue = [0, 4]"] ;
231 -> 233 ;
234 [label="X[325] <= 1.5\nentropy = 0.1265\nsamples = 9087\nvalue = [8929, 158]"] ;
2 -> 234 ;
235 [label="X[369] <= 124683.1484\nentropy = 0.1061\nsamples = 8234\nvalue = [8119, 115]"] ;
234 -> 235 ;
236 [label="X[2] <= 23.5\nentropy = 0.1292\nsamples = 5043\nvalue = [4953, 90]"] ;
235 -> 236 ;
237 [label="X[369] <= 117271.3594\nentropy = 0.1055\nsamples = 3387\nvalue = [3340, 47]"] ;
236 -> 237 ;
238 [label="X[276] <= 1.5\nentropy = 0.0744\nsamples = 2099\nvalue = [2080, 19]"] ;
237 -> 238 ;
239 [label="X[369] <= 99931.6953\nentropy = 0.0654\nsamples = 2069\nvalue = [2053, 16]"] ;
238 -> 239 ;
240 [label="X[369] <= 99896.2188\nentropy = 0.0816\nsamples = 1580\nvalue = [1564, 16]"] ;
239 -> 240 ;
241 [label="X[152] <= 1.5\nentropy = 0.0775\nsamples = 1579\nvalue = [1564, 15]"] ;
240 -> 241 ;
242 [label="X[0] <= 67150.5\nentropy = 0.1598\nsamples = 257\nvalue = [251, 6]"] ;
241 -> 242 ;
243 [label="X[0] <= 66662.0\nentropy = 0.2668\nsamples = 132\nvalue = [126, 6]"] ;
242 -> 243 ;
244 [label="X[369] <= 83100.3438\nentropy = 0.2338\nsamples = 131\nvalue = [126, 5]"] ;
243 -> 244 ;
245 [label="X[369] <= 61218.9297\nentropy = 0.096\nsamples = 81\nvalue = [80, 1]"] ;
244 -> 245 ;
246 [label="X[369] <= 60863.6094\nentropy = 0.3712\nsamples = 14\nvalue = [13, 1]"] ;
245 -> 246 ;
247 [label="entropy = 0.0\nsamples = 13\nvalue = [13, 0]"] ;
246 -> 247 ;
248 [label="entropy = 0.0\nsamples = 1\nvalue = [0, 1]"] ;
246 -> 248 ;
249 [label="entropy = 0.0\nsamples = 67\nvalue = [67, 0]"] ;
245 -> 249 ;
250 [label="X[369] <= 90195.2969\nentropy = 0.4022\nsamples = 50\nvalue = [46, 4]"] ;
244 -> 250 ;
251 [label="X[0] <= 56322.5\nentropy = 0.65\nsamples = 24\nvalue = [20, 4]"] ;
250 -> 251 ;
252 [label="X[369] <= 84443.4297\nentropy = 0.3095\nsamples = 18\nvalue = [17, 1]"] ;
251 -> 252 ;
253 [label="X[369] <= 84067.4063\nentropy = 1.0\nsamples = 2\nvalue = [1, 1]"] ;
252 -> 253 ;
254 [label="entropy = 0.0\nsamples = 1\nvalue = [1, 0]"] ;
253 -> 254 ;
255 [label="entropy = 0.0\nsamples = 1\nvalue = [0, 1]"] ;
253 -> 255 ;
256 [label="entropy = 0.0\nsamples = 16\nvalue = [16, 0]"] ;
252 -> 256 ;
257 [label="X[183] <= 46.5\nentropy = 1.0\nsamples = 6\nvalue = [3, 3]"] ;
251 -> 257 ;
258 [label="X[0] <= 60781.5\nentropy = 0.8113\nsamples = 4\nvalue = [1, 3]"] ;
257 -> 258 ;
259 [label="entropy = 0.0\nsamples = 2\nvalue = [0, 2]"] ;
258 -> 259 ;
260 [label="X[369] <= 86832.875\nentropy = 1.0\nsamples = 2\nvalue = [1, 1]"] ;
258 -> 260 ;
261 [label="entropy = 0.0\nsamples = 1\nvalue = [1, 0]"] ;
260 -> 261 ;
262 [label="entropy = 0.0\nsamples = 1\nvalue = [0, 1]"] ;
260 -> 262 ;
263 [label="entropy = 0.0\nsamples = 2\nvalue = [2, 0]"] ;
257 -> 263 ;
264 [label="entropy = 0.0\nsamples = 26\nvalue = [26, 0]"] ;
250 -> 264 ;
265 [label="entropy = 0.0\nsamples = 1\nvalue = [0, 1]"] ;
243 -> 265 ;
266 [label="entropy = 0.0\nsamples = 125\nvalue = [125, 0]"] ;
242 -> 266 ;
267 [label="X[0] <= 147931.5\nentropy = 0.0588\nsamples = 1322\nvalue = [1313, 9]"] ;
241 -> 267 ;
268 [label="X[0] <= 116163.0\nentropy = 0.0485\nsamples = 1294\nvalue = [1287, 7]"] ;
267 -> 268 ;
269 [label="X[0] <= 116036.5\nentropy = 0.0589\nsamples = 1026\nvalue = [1019, 7]"] ;
268 -> 269 ;
270 [label="X[0] <= 27835.0\nentropy = 0.0446\nsamples = 1023\nvalue = [1018, 5]"] ;
269 -> 270 ;
271 [label="X[0] <= 27780.5\nentropy = 0.0926\nsamples = 254\nvalue = [251, 3]"] ;
270 -> 271 ;
272 [label="X[369] <= 89144.5938\nentropy = 0.0666\nsamples = 253\nvalue = [251, 2]"] ;
271 -> 272 ;
273 [label="entropy = 0.0\nsamples = 198\nvalue = [198, 0]"] ;
272 -> 273 ;
274 [label="X[369] <= 89258.9063\nentropy = 0.2254\nsamples = 55\nvalue = [53, 2]"] ;
272 -> 274 ;
275 [label="entropy = 0.0\nsamples = 1\nvalue = [0, 1]"] ;
274 -> 275 ;
276 [label="X[369] <= 98376.875\nentropy = 0.133\nsamples = 54\nvalue = [53, 1]"] ;
274 -> 276 ;
277 [label="entropy = 0.0\nsamples = 44\nvalue = [44, 0]"] ;
276 -> 277 ;
278 [label="X[369] <= 98464.7109\nentropy = 0.469\nsamples = 10\nvalue = [9, 1]"] ;
276 -> 278 ;
279 [label="entropy = 0.0\nsamples = 1\nvalue = [0, 1]"] ;
278 -> 279 ;
280 [label="entropy = 0.0\nsamples = 9\nvalue = [9, 0]"] ;
278 -> 280 ;
281 [label="entropy = 0.0\nsamples = 1\nvalue = [0, 1]"] ;
271 -> 281 ;
282 [label="X[369] <= 76557.6406\nentropy = 0.0261\nsamples = 769\nvalue = [767, 2]"] ;
270 -> 282 ;
283 [label="X[369] <= 76502.75\nentropy = 0.0439\nsamples = 417\nvalue = [415, 2]"] ;
282 -> 283 ;
284 [label="X[369] <= 59875.9805\nentropy = 0.0244\nsamples = 416\nvalue = [415, 1]"] ;
283 -> 284 ;
285 [label="X[369] <= 59827.9805\nentropy = 0.1056\nsamples = 72\nvalue = [71, 1]"] ;
284 -> 285 ;
286 [label="entropy = 0.0\nsamples = 71\nvalue = [71, 0]"] ;
285 -> 286 ;
287 [label="entropy = 0.0\nsamples = 1\nvalue = [0, 1]"] ;
285 -> 287 ;
288 [label="entropy = 0.0\nsamples = 344\nvalue = [344, 0]"] ;
284 -> 288 ;
289 [label="entropy = 0.0\nsamples = 1\nvalue = [0, 1]"] ;
283 -> 289 ;
290 [label="entropy = 0.0\nsamples = 352\nvalue = [352, 0]"] ;
282 -> 290 ;
291 [label="X[0] <= 116116.5\nentropy = 0.9183\nsamples = 3\nvalue = [1, 2]"] ;
269 -> 291 ;
292 [label="entropy = 0.0\nsamples = 1\nvalue = [0, 1]"] ;
291 -> 292 ;
293 [label="X[0] <= 116129.0\nentropy = 1.0\nsamples = 2\nvalue = [1, 1]"] ;
291 -> 293 ;
294 [label="entropy = 0.0\nsamples = 1\nvalue = [1, 0]"] ;
293 -> 294 ;
295 [label="entropy = 0.0\nsamples = 1\nvalue = [0, 1]"] ;
293 -> 295 ;
296 [label="entropy = 0.0\nsamples = 268\nvalue = [268, 0]"] ;
268 -> 296 ;
297 [label="X[0] <= 148162.5\nentropy = 0.3712\nsamples = 28\nvalue = [26, 2]"] ;
267 -> 297 ;
298 [label="entropy = 0.0\nsamples = 1\nvalue = [0, 1]"] ;
297 -> 298 ;
299 [label="X[369] <= 70209.6875\nentropy = 0.2285\nsamples = 27\nvalue = [26, 1]"] ;
297 -> 299 ;
300 [label="X[369] <= 70102.3828\nentropy = 0.5033\nsamples = 9\nvalue = [8, 1]"] ;
299 -> 300 ;
301 [label="entropy = 0.0\nsamples = 8\nvalue = [8, 0]"] ;
300 -> 301 ;
302 [label="entropy = 0.0\nsamples = 1\nvalue = [0, 1]"] ;
300 -> 302 ;
303 [label="entropy = 0.0\nsamples = 18\nvalue = [18, 0]"] ;
299 -> 303 ;
304 [label="entropy = 0.0\nsamples = 1\nvalue = [0, 1]"] ;
240 -> 304 ;
305 [label="entropy = 0.0\nsamples = 489\nvalue = [489, 0]"] ;
239 -> 305 ;
306 [label="X[330] <= 33.645\nentropy = 0.469\nsamples = 30\nvalue = [27, 3]"] ;
238 -> 306 ;
307 [label="X[0] <= 67819.5\nentropy = 0.3621\nsamples = 29\nvalue = [27, 2]"] ;
306 -> 307 ;
308 [label="entropy = 0.0\nsamples = 15\nvalue = [15, 0]"] ;
307 -> 308 ;
309 [label="X[0] <= 81991.0\nentropy = 0.5917\nsamples = 14\nvalue = [12, 2]"] ;
307 -> 309 ;
310 [label="entropy = 0.0\nsamples = 2\nvalue = [0, 2]"] ;
309 -> 310 ;
311 [label="entropy = 0.0\nsamples = 12\nvalue = [12, 0]"] ;
309 -> 311 ;
312 [label="entropy = 0.0\nsamples = 1\nvalue = [0, 1]"] ;
306 -> 312 ;
313 [label="X[0] <= 142170.5\nentropy = 0.1511\nsamples = 1288\nvalue = [1260, 28]"] ;
237 -> 313 ;
314 [label="X[148] <= 1.5\nentropy = 0.1273\nsamples = 1198\nvalue = [1177, 21]"] ;
313 -> 314 ;
315 [label="X[28] <= 0.5\nentropy = 0.1354\nsamples = 1109\nvalue = [1088, 21]"] ;
314 -> 315 ;
316 [label="X[0] <= 64261.0\nentropy = 0.1305\nsamples = 1106\nvalue = [1086, 20]"] ;
315 -> 316 ;
317 [label="X[0] <= 64212.0\nentropy = 0.1778\nsamples = 486\nvalue = [473, 13]"] ;
316 -> 317 ;
318 [label="X[369] <= 123856.125\nentropy = 0.1673\nsamples = 485\nvalue = [473, 12]"] ;
317 -> 318 ;
319 [label="X[0] <= 22821.0\nentropy = 0.158\nsamples = 478\nvalue = [467, 11]"] ;
318 -> 319 ;
320 [label="X[0] <= 5415.5\nentropy = 0.0531\nsamples = 166\nvalue = [165, 1]"] ;
319 -> 320 ;
321 [label="X[0] <= 5379.0\nentropy = 0.1872\nsamples = 35\nvalue = [34, 1]"] ;
320 -> 321 ;
322 [label="entropy = 0.0\nsamples = 34\nvalue = [34, 0]"] ;
321 -> 322 ;
323 [label="entropy = 0.0\nsamples = 1\nvalue = [0, 1]"] ;
321 -> 323 ;
324 [label="entropy = 0.0\nsamples = 131\nvalue = [131, 0]"] ;
320 -> 324 ;
325 [label="X[0] <= 23007.5\nentropy = 0.2046\nsamples = 312\nvalue = [302, 10]"] ;
319 -> 325 ;
326 [label="entropy = 0.0\nsamples = 1\nvalue = [0, 1]"] ;
325 -> 326 ;
327 [label="X[0] <= 29077.0\nentropy = 0.189\nsamples = 311\nvalue = [302, 9]"] ;
325 -> 327 ;
328 [label="entropy = 0.0\nsamples = 41\nvalue = [41, 0]"] ;
327 -> 328 ;
329 [label="X[0] <= 29268.0\nentropy = 0.2108\nsamples = 270\nvalue = [261, 9]"] ;
327 -> 329 ;
330 [label="entropy = 0.0\nsamples = 1\nvalue = [0, 1]"] ;
329 -> 330 ;
331 [label="X[0] <= 46579.0\nentropy = 0.1931\nsamples = 269\nvalue = [261, 8]"] ;
329 -> 331 ;
332 [label="X[0] <= 46477.5\nentropy = 0.2746\nsamples = 127\nvalue = [121, 6]"] ;
331 -> 332 ;
333 [label="X[0] <= 31321.0\nentropy = 0.2408\nsamples = 126\nvalue = [121, 5]"] ;
332 -> 333 ;
334 [label="entropy = 0.0\nsamples = 19\nvalue = [19, 0]"] ;
333 -> 334 ;
335 [label="X[0] <= 31813.5\nentropy = 0.2723\nsamples = 107\nvalue = [102, 5]"] ;
333 -> 335 ;
336 [label="entropy = 0.0\nsamples = 2\nvalue = [0, 2]"] ;
335 -> 336 ;
337 [label="X[0] <= 38075.5\nentropy = 0.1872\nsamples = 105\nvalue = [102, 3]"] ;
335 -> 337 ;
338 [label="entropy = 0.0\nsamples = 44\nvalue = [44, 0]"] ;
337 -> 338 ;
339 [label="X[0] <= 38233.0\nentropy = 0.2829\nsamples = 61\nvalue = [58, 3]"] ;
337 -> 339 ;
340 [label="entropy = 0.0\nsamples = 1\nvalue = [0, 1]"] ;
339 -> 340 ;
341 [label="X[0] <= 42873.5\nentropy = 0.2108\nsamples = 60\nvalue = [58, 2]"] ;
339 -> 341 ;
342 [label="entropy = 0.0\nsamples = 34\nvalue = [34, 0]"] ;
341 -> 342 ;
343 [label="X[0] <= 43156.0\nentropy = 0.3912\nsamples = 26\nvalue = [24, 2]"] ;
341 -> 343 ;
344 [label="entropy = 0.0\nsamples = 1\nvalue = [0, 1]"] ;
343 -> 344 ;
345 [label="X[155] <= 1.5\nentropy = 0.2423\nsamples = 25\nvalue = [24, 1]"] ;
343 -> 345 ;
346 [label="X[0] <= 45193.5\nentropy = 0.8113\nsamples = 4\nvalue = [3, 1]"] ;
345 -> 346 ;
347 [label="entropy = 0.0\nsamples = 2\nvalue = [2, 0]"] ;
346 -> 347 ;
348 [label="X[2] <= 14.5\nentropy = 1.0\nsamples = 2\nvalue = [1, 1]"] ;
346 -> 348 ;
349 [label="entropy = 0.0\nsamples = 1\nvalue = [1, 0]"] ;
348 -> 349 ;
350 [label="entropy = 0.0\nsamples = 1\nvalue = [0, 1]"] ;
348 -> 350 ;
351 [label="entropy = 0.0\nsamples = 21\nvalue = [21, 0]"] ;
345 -> 351 ;
352 [label="entropy = 0.0\nsamples = 1\nvalue = [0, 1]"] ;
332 -> 352 ;
353 [label="X[0] <= 61104.5\nentropy = 0.1068\nsamples = 142\nvalue = [140, 2]"] ;
331 -> 353 ;
354 [label="entropy = 0.0\nsamples = 112\nvalue = [112, 0]"] ;
353 -> 354 ;
355 [label="X[0] <= 61124.0\nentropy = 0.3534\nsamples = 30\nvalue = [28, 2]"] ;
353 -> 355 ;
356 [label="entropy = 0.0\nsamples = 1\nvalue = [0, 1]"] ;
355 -> 356 ;
357 [label="X[0] <= 62895.5\nentropy = 0.2164\nsamples = 29\nvalue = [28, 1]"] ;
355 -> 357 ;
358 [label="entropy = 0.0\nsamples = 16\nvalue = [16, 0]"] ;
357 -> 358 ;
359 [label="X[0] <= 62961.0\nentropy = 0.3912\nsamples = 13\nvalue = [12, 1]"] ;
357 -> 359 ;
360 [label="entropy = 0.0\nsamples = 1\nvalue = [0, 1]"] ;
359 -> 360 ;
361 [label="entropy = 0.0\nsamples = 12\nvalue = [12, 0]"] ;
359 -> 361 ;
362 [label="X[369] <= 123897.0781\nentropy = 0.5917\nsamples = 7\nvalue = [6, 1]"] ;
318 -> 362 ;
363 [label="entropy = 0.0\nsamples = 1\nvalue = [0, 1]"] ;
362 -> 363 ;
364 [label="entropy = 0.0\nsamples = 6\nvalue = [6, 0]"] ;
362 -> 364 ;
365 [label="entropy = 0.0\nsamples = 1\nvalue = [0, 1]"] ;
317 -> 365 ;
366 [label="X[0] <= 117864.5\nentropy = 0.0892\nsamples = 620\nvalue = [613, 7]"] ;
316 -> 366 ;
367 [label="X[276] <= 1.5\nentropy = 0.0422\nsamples = 436\nvalue = [434, 2]"] ;
366 -> 367 ;
368 [label="X[155] <= 1.5\nentropy = 0.0238\nsamples = 428\nvalue = [427, 1]"] ;
367 -> 368 ;
369 [label="X[0] <= 98829.5\nentropy = 0.095\nsamples = 82\nvalue = [81, 1]"] ;
368 -> 369 ;
370 [label="entropy = 0.0\nsamples = 53\nvalue = [53, 0]"] ;
369 -> 370 ;
371 [label="X[0] <= 99233.0\nentropy = 0.2164\nsamples = 29\nvalue = [28, 1]"] ;
369 -> 371 ;
372 [label="entropy = 0.0\nsamples = 1\nvalue = [0, 1]"] ;
371 -> 372 ;
373 [label="entropy = 0.0\nsamples = 28\nvalue = [28, 0]"] ;
371 -> 373 ;
374 [label="entropy = 0.0\nsamples = 346\nvalue = [346, 0]"] ;
368 -> 374 ;
375 [label="X[0] <= 88560.0\nentropy = 0.5436\nsamples = 8\nvalue = [7, 1]"] ;
367 -> 375 ;
376 [label="X[0] <= 87697.5\nentropy = 0.8113\nsamples = 4\nvalue = [3, 1]"] ;
375 -> 376 ;
377 [label="entropy = 0.0\nsamples = 3\nvalue = [3, 0]"] ;
376 -> 377 ;
378 [label="entropy = 0.0\nsamples = 1\nvalue = [0, 1]"] ;
376 -> 378 ;
379 [label="entropy = 0.0\nsamples = 4\nvalue = [4, 0]"] ;
375 -> 379 ;
380 [label="X[0] <= 118016.5\nentropy = 0.18\nsamples = 184\nvalue = [179, 5]"] ;
366 -> 380 ;
381 [label="entropy = 0.0\nsamples = 1\nvalue = [0, 1]"] ;
380 -> 381 ;
382 [label="X[0] <= 132514.5\nentropy = 0.1517\nsamples = 183\nvalue = [179, 4]"] ;
380 -> 382 ;
383 [label="X[0] <= 130843.5\nentropy = 0.2254\nsamples = 110\nvalue = [106, 4]"] ;
382 -> 383 ;
384 [label="X[0] <= 123954.0\nentropy = 0.1371\nsamples = 104\nvalue = [102, 2]"] ;
383 -> 384 ;
385 [label="X[0] <= 123878.5\nentropy = 0.2539\nsamples = 47\nvalue = [45, 2]"] ;
384 -> 385 ;
386 [label="X[80] <= 0.5\nentropy = 0.1511\nsamples = 46\nvalue = [45, 1]"] ;
385 -> 386 ;
387 [label="X[0] <= 120499.5\nentropy = 0.5917\nsamples = 7\nvalue = [6, 1]"] ;
386 -> 387 ;
388 [label="X[0] <= 119759.0\nentropy = 1.0\nsamples = 2\nvalue = [1, 1]"] ;
387 -> 388 ;
389 [label="entropy = 0.0\nsamples = 1\nvalue = [1, 0]"] ;
388 -> 389 ;
390 [label="entropy = 0.0\nsamples = 1\nvalue = [0, 1]"] ;
388 -> 390 ;
391 [label="entropy = 0.0\nsamples = 5\nvalue = [5, 0]"] ;
387 -> 391 ;
392 [label="entropy = 0.0\nsamples = 39\nvalue = [39, 0]"] ;
386 -> 392 ;
393 [label="entropy = 0.0\nsamples = 1\nvalue = [0, 1]"] ;
385 -> 393 ;
394 [label="entropy = 0.0\nsamples = 57\nvalue = [57, 0]"] ;
384 -> 394 ;
395 [label="X[290] <= 1.5\nentropy = 0.9183\nsamples = 6\nvalue = [4, 2]"] ;
383 -> 395 ;
396 [label="entropy = 0.0\nsamples = 3\nvalue = [3, 0]"] ;
395 -> 396 ;
397 [label="X[0] <= 131025.5\nentropy = 0.9183\nsamples = 3\nvalue = [1, 2]"] ;
395 -> 397 ;
398 [label="entropy = 0.0\nsamples = 1\nvalue = [0, 1]"] ;
397 -> 398 ;
399 [label="X[0] <= 131689.0\nentropy = 1.0\nsamples = 2\nvalue = [1, 1]"] ;
397 -> 399 ;
400 [label="entropy = 0.0\nsamples = 1\nvalue = [1, 0]"] ;
399 -> 400 ;
401 [label="entropy = 0.0\nsamples = 1\nvalue = [0, 1]"] ;
399 -> 401 ;
402 [label="entropy = 0.0\nsamples = 73\nvalue = [73, 0]"] ;
382 -> 402 ;
403 [label="X[0] <= 101738.5\nentropy = 0.9183\nsamples = 3\nvalue = [2, 1]"] ;
315 -> 403 ;
404 [label="entropy = 0.0\nsamples = 2\nvalue = [2, 0]"] ;
403 -> 404 ;
405 [label="entropy = 0.0\nsamples = 1\nvalue = [0, 1]"] ;
403 -> 405 ;
406 [label="entropy = 0.0\nsamples = 89\nvalue = [89, 0]"] ;
314 -> 406 ;
407 [label="X[290] <= 1.5\nentropy = 0.3943\nsamples = 90\nvalue = [83, 7]"] ;
313 -> 407 ;
408 [label="entropy = 0.0\nsamples = 32\nvalue = [32, 0]"] ;
407 -> 408 ;
409 [label="X[183] <= 16.5\nentropy = 0.5313\nsamples = 58\nvalue = [51, 7]"] ;
407 -> 409 ;
410 [label="X[0] <= 142392.5\nentropy = 0.4855\nsamples = 57\nvalue = [51, 6]"] ;
409 -> 410 ;
411 [label="entropy = 0.0\nsamples = 1\nvalue = [0, 1]"] ;
410 -> 411 ;
412 [label="X[0] <= 148121.5\nentropy = 0.4341\nsamples = 56\nvalue = [51, 5]"] ;
410 -> 412 ;
413 [label="X[0] <= 148061.5\nentropy = 0.5436\nsamples = 40\nvalue = [35, 5]"] ;
412 -> 413 ;
414 [label="X[0] <= 146168.5\nentropy = 0.4771\nsamples = 39\nvalue = [35, 4]"] ;
413 -> 414 ;
415 [label="X[0] <= 145742.5\nentropy = 0.6194\nsamples = 26\nvalue = [22, 4]"] ;
414 -> 415 ;
416 [label="X[0] <= 144342.0\nentropy = 0.4262\nsamples = 23\nvalue = [21, 2]"] ;
415 -> 416 ;
417 [label="X[0] <= 144306.0\nentropy = 0.5226\nsamples = 17\nvalue = [15, 2]"] ;
416 -> 417 ;
418 [label="X[0] <= 142796.0\nentropy = 0.3373\nsamples = 16\nvalue = [15, 1]"] ;
417 -> 418 ;
419 [label="X[369] <= 117495.9844\nentropy = 0.8113\nsamples = 4\nvalue = [3, 1]"] ;
418 -> 419 ;
420 [label="entropy = 0.0\nsamples = 3\nvalue = [3, 0]"] ;
419 -> 420 ;
421 [label="entropy = 0.0\nsamples = 1\nvalue = [0, 1]"] ;
419 -> 421 ;
422 [label="entropy = 0.0\nsamples = 12\nvalue = [12, 0]"] ;
418 -> 422 ;
423 [label="entropy = 0.0\nsamples = 1\nvalue = [0, 1]"] ;
417 -> 423 ;
424 [label="entropy = 0.0\nsamples = 6\nvalue = [6, 0]"] ;
416 -> 424 ;
425 [label="X[369] <= 119620.0156\nentropy = 0.9183\nsamples = 3\nvalue = [1, 2]"] ;
415 -> 425 ;
426 [label="entropy = 0.0\nsamples = 2\nvalue = [0, 2]"] ;
425 -> 426 ;
427 [label="entropy = 0.0\nsamples = 1\nvalue = [1, 0]"] ;
425 -> 427 ;
428 [label="entropy = 0.0\nsamples = 13\nvalue = [13, 0]"] ;
414 -> 428 ;
429 [label="entropy = 0.0\nsamples = 1\nvalue = [0, 1]"] ;
413 -> 429 ;
430 [label="entropy = 0.0\nsamples = 16\nvalue = [16, 0]"] ;
412 -> 430 ;
431 [label="entropy = 0.0\nsamples = 1\nvalue = [0, 1]"] ;
409 -> 431 ;
432 [label="X[369] <= 124629.4063\nentropy = 0.1737\nsamples = 1656\nvalue = [1613, 43]"] ;
236 -> 432 ;
433 [label="X[148] <= 1.5\nentropy = 0.1707\nsamples = 1655\nvalue = [1613, 42]"] ;
432 -> 433 ;
434 [label="X[290] <= 1.5\nentropy = 0.18\nsamples = 1546\nvalue = [1504, 42]"] ;
433 -> 434 ;
435 [label="X[369] <= 107718.3906\nentropy = 0.105\nsamples = 435\nvalue = [429, 6]"] ;
434 -> 435 ;
436 [label="X[369] <= 85634.7891\nentropy = 0.1579\nsamples = 261\nvalue = [255, 6]"] ;
435 -> 436 ;
437 [label="entropy = 0.0\nsamples = 163\nvalue = [163, 0]"] ;
436 -> 437 ;
438 [label="X[0] <= 149756.0\nentropy = 0.3323\nsamples = 98\nvalue = [92, 6]"] ;
436 -> 438 ;
439 [label="X[369] <= 85764.5\nentropy = 0.2929\nsamples = 97\nvalue = [92, 5]"] ;
438 -> 439 ;
440 [label="entropy = 0.0\nsamples = 1\nvalue = [0, 1]"] ;
439 -> 440 ;
441 [label="X[369] <= 107641.8438\nentropy = 0.2499\nsamples = 96\nvalue = [92, 4]"] ;
439 -> 441 ;
442 [label="X[369] <= 96338.1563\nentropy = 0.2022\nsamples = 95\nvalue = [92, 3]"] ;
441 -> 442 ;
443 [label="entropy = 0.0\nsamples = 44\nvalue = [44, 0]"] ;
442 -> 443 ;
444 [label="X[369] <= 96393.7344\nentropy = 0.3228\nsamples = 51\nvalue = [48, 3]"] ;
442 -> 444 ;
445 [label="entropy = 0.0\nsamples = 1\nvalue = [0, 1]"] ;
444 -> 445 ;
446 [label="X[0] <= 67737.0\nentropy = 0.2423\nsamples = 50\nvalue = [48, 2]"] ;
444 -> 446 ;
447 [label="entropy = 0.0\nsamples = 22\nvalue = [22, 0]"] ;
446 -> 447 ;
448 [label="X[0] <= 70590.5\nentropy = 0.3712\nsamples = 28\nvalue = [26, 2]"] ;
446 -> 448 ;
449 [label="entropy = 0.0\nsamples = 1\nvalue = [0, 1]"] ;
448 -> 449 ;
450 [label="X[369] <= 105354.5078\nentropy = 0.2285\nsamples = 27\nvalue = [26, 1]"] ;
448 -> 450 ;
451 [label="entropy = 0.0\nsamples = 20\nvalue = [20, 0]"] ;
450 -> 451 ;
452 [label="X[369] <= 105451.1719\nentropy = 0.5917\nsamples = 7\nvalue = [6, 1]"] ;
450 -> 452 ;
453 [label="entropy = 0.0\nsamples = 1\nvalue = [0, 1]"] ;
452 -> 453 ;
454 [label="entropy = 0.0\nsamples = 6\nvalue = [6, 0]"] ;
452 -> 454 ;
455 [label="entropy = 0.0\nsamples = 1\nvalue = [0, 1]"] ;
441 -> 455 ;
456 [label="entropy = 0.0\nsamples = 1\nvalue = [0, 1]"] ;
438 -> 456 ;
457 [label="entropy = 0.0\nsamples = 174\nvalue = [174, 0]"] ;
435 -> 457 ;
458 [label="X[369] <= 84802.7656\nentropy = 0.2063\nsamples = 1111\nvalue = [1075, 36]"] ;
434 -> 458 ;
459 [label="X[369] <= 84748.5781\nentropy = 0.2858\nsamples = 361\nvalue = [343, 18]"] ;
458 -> 459 ;
460 [label="X[0] <= 151626.0\nentropy = 0.2745\nsamples = 360\nvalue = [343, 17]"] ;
459 -> 460 ;
461 [label="X[0] <= 38956.5\nentropy = 0.2629\nsamples = 359\nvalue = [343, 16]"] ;
460 -> 461 ;
462 [label="X[0] <= 38456.0\nentropy = 0.3943\nsamples = 90\nvalue = [83, 7]"] ;
461 -> 462 ;
463 [label="X[369] <= 61047.1055\nentropy = 0.3562\nsamples = 89\nvalue = [83, 6]"] ;
462 -> 463 ;
464 [label="X[2] <= 24.5\nentropy = 0.8113\nsamples = 8\nvalue = [6, 2]"] ;
463 -> 464 ;
465 [label="X[369] <= 59432.6563\nentropy = 0.9183\nsamples = 3\nvalue = [1, 2]"] ;
464 -> 465 ;
466 [label="entropy = 0.0\nsamples = 1\nvalue = [1, 0]"] ;
465 -> 466 ;
467 [label="entropy = 0.0\nsamples = 2\nvalue = [0, 2]"] ;
465 -> 467 ;
468 [label="entropy = 0.0\nsamples = 5\nvalue = [5, 0]"] ;
464 -> 468 ;
469 [label="X[369] <= 69194.3438\nentropy = 0.2838\nsamples = 81\nvalue = [77, 4]"] ;
463 -> 469 ;
470 [label="entropy = 0.0\nsamples = 28\nvalue = [28, 0]"] ;
469 -> 470 ;
471 [label="X[369] <= 70015.7813\nentropy = 0.386\nsamples = 53\nvalue = [49, 4]"] ;
469 -> 471 ;
472 [label="entropy = 0.0\nsamples = 1\nvalue = [0, 1]"] ;
471 -> 472 ;
473 [label="X[369] <= 81625.9375\nentropy = 0.3182\nsamples = 52\nvalue = [49, 3]"] ;
471 -> 473 ;
474 [label="X[0] <= 36057.5\nentropy = 0.1654\nsamples = 41\nvalue = [40, 1]"] ;
473 -> 474 ;
475 [label="entropy = 0.0\nsamples = 36\nvalue = [36, 0]"] ;
474 -> 475 ;
476 [label="X[369] <= 73042.0938\nentropy = 0.7219\nsamples = 5\nvalue = [4, 1]"] ;
474 -> 476 ;
477 [label="entropy = 0.0\nsamples = 1\nvalue = [0, 1]"] ;
476 -> 477 ;
478 [label="entropy = 0.0\nsamples = 4\nvalue = [4, 0]"] ;
476 -> 478 ;
479 [label="X[369] <= 82517.4141\nentropy = 0.684\nsamples = 11\nvalue = [9, 2]"] ;
473 -> 479 ;
480 [label="X[280] <= 1.5\nentropy = 0.9183\nsamples = 3\nvalue = [1, 2]"] ;
479 -> 480 ;
481 [label="entropy = 0.0\nsamples = 2\nvalue = [0, 2]"] ;
480 -> 481 ;
482 [label="entropy = 0.0\nsamples = 1\nvalue = [1, 0]"] ;
480 -> 482 ;
483 [label="entropy = 0.0\nsamples = 8\nvalue = [8, 0]"] ;
479 -> 483 ;
484 [label="entropy = 0.0\nsamples = 1\nvalue = [0, 1]"] ;
462 -> 484 ;
485 [label="X[2] <= 25.5\nentropy = 0.2114\nsamples = 269\nvalue = [260, 9]"] ;
461 -> 485 ;
486 [label="X[369] <= 75816.9844\nentropy = 0.1355\nsamples = 211\nvalue = [207, 4]"] ;
485 -> 486 ;
487 [label="X[369] <= 60687.6445\nentropy = 0.0568\nsamples = 153\nvalue = [152, 1]"] ;
486 -> 487 ;
488 [label="X[369] <= 60621.9453\nentropy = 0.2006\nsamples = 32\nvalue = [31, 1]"] ;
487 -> 488 ;
489 [label="entropy = 0.0\nsamples = 31\nvalue = [31, 0]"] ;
488 -> 489 ;
490 [label="entropy = 0.0\nsamples = 1\nvalue = [0, 1]"] ;
488 -> 490 ;
491 [label="entropy = 0.0\nsamples = 121\nvalue = [121, 0]"] ;
487 -> 491 ;
492 [label="X[369] <= 76135.1406\nentropy = 0.2937\nsamples = 58\nvalue = [55, 3]"] ;
486 -> 492 ;
493 [label="entropy = 0.0\nsamples = 1\nvalue = [0, 1]"] ;
492 -> 493 ;
494 [label="X[369] <= 79970.5938\nentropy = 0.2193\nsamples = 57\nvalue = [55, 2]"] ;
492 -> 494 ;
495 [label="X[369] <= 78974.3984\nentropy = 0.3809\nsamples = 27\nvalue = [25, 2]"] ;
494 -> 495 ;
496 [label="entropy = 0.0\nsamples = 22\nvalue = [22, 0]"] ;
495 -> 496 ;
497 [label="X[2] <= 24.5\nentropy = 0.971\nsamples = 5\nvalue = [3, 2]"] ;
495 -> 497 ;
498 [label="entropy = 0.0\nsamples = 2\nvalue = [2, 0]"] ;
497 -> 498 ;
499 [label="X[0] <= 120296.5\nentropy = 0.9183\nsamples = 3\nvalue = [1, 2]"] ;
497 -> 499 ;
500 [label="entropy = 0.0\nsamples = 2\nvalue = [0, 2]"] ;
499 -> 500 ;
501 [label="entropy = 0.0\nsamples = 1\nvalue = [1, 0]"] ;
499 -> 501 ;
502 [label="entropy = 0.0\nsamples = 30\nvalue = [30, 0]"] ;
494 -> 502 ;
503 [label="X[0] <= 69656.0\nentropy = 0.4237\nsamples = 58\nvalue = [53, 5]"] ;
485 -> 503 ;
504 [label="entropy = 0.0\nsamples = 19\nvalue = [19, 0]"] ;
503 -> 504 ;
505 [label="X[0] <= 85420.5\nentropy = 0.5525\nsamples = 39\nvalue = [34, 5]"] ;
503 -> 505 ;
506 [label="X[369] <= 64837.8594\nentropy = 0.9852\nsamples = 7\nvalue = [4, 3]"] ;
505 -> 506 ;
507 [label="entropy = 0.0\nsamples = 3\nvalue = [3, 0]"] ;
506 -> 507 ;
508 [label="X[369] <= 68360.5781\nentropy = 0.8113\nsamples = 4\nvalue = [1, 3]"] ;
506 -> 508 ;
509 [label="X[0] <= 77197.0\nentropy = 1.0\nsamples = 2\nvalue = [1, 1]"] ;
508 -> 509 ;
510 [label="entropy = 0.0\nsamples = 1\nvalue = [0, 1]"] ;
509 -> 510 ;
511 [label="entropy = 0.0\nsamples = 1\nvalue = [1, 0]"] ;
509 -> 511 ;
512 [label="entropy = 0.0\nsamples = 2\nvalue = [0, 2]"] ;
508 -> 512 ;
513 [label="X[276] <= 1.5\nentropy = 0.3373\nsamples = 32\nvalue = [30, 2]"] ;
505 -> 513 ;
514 [label="X[369] <= 83008.2734\nentropy = 0.2056\nsamples = 31\nvalue = [30, 1]"] ;
513 -> 514 ;
515 [label="entropy = 0.0\nsamples = 29\nvalue = [29, 0]"] ;
514 -> 515 ;
516 [label="X[369] <= 83723.4609\nentropy = 1.0\nsamples = 2\nvalue = [1, 1]"] ;
514 -> 516 ;
517 [label="entropy = 0.0\nsamples = 1\nvalue = [0, 1]"] ;
516 -> 517 ;
518 [label="entropy = 0.0\nsamples = 1\nvalue = [1, 0]"] ;
516 -> 518 ;
519 [label="entropy = 0.0\nsamples = 1\nvalue = [0, 1]"] ;
513 -> 519 ;
520 [label="entropy = 0.0\nsamples = 1\nvalue = [0, 1]"] ;
460 -> 520 ;
521 [label="entropy = 0.0\nsamples = 1\nvalue = [0, 1]"] ;
459 -> 521 ;
522 [label="X[369] <= 115938.5547\nentropy = 0.1633\nsamples = 750\nvalue = [732, 18]"] ;
458 -> 522 ;
523 [label="X[369] <= 97672.1094\nentropy = 0.0691\nsamples = 363\nvalue = [360, 3]"] ;
522 -> 523 ;
524 [label="X[369] <= 97551.4375\nentropy = 0.1305\nsamples = 166\nvalue = [163, 3]"] ;
523 -> 524 ;
525 [label="X[369] <= 90869.2969\nentropy = 0.0945\nsamples = 165\nvalue = [163, 2]"] ;
524 -> 525 ;
526 [label="X[369] <= 90709.3047\nentropy = 0.1703\nsamples = 79\nvalue = [77, 2]"] ;
525 -> 526 ;
527 [label="entropy = 0.0\nsamples = 76\nvalue = [76, 0]"] ;
526 -> 527 ;
528 [label="X[327] <= 1.5\nentropy = 0.9183\nsamples = 3\nvalue = [1, 2]"] ;
526 -> 528 ;
529 [label="entropy = 0.0\nsamples = 2\nvalue = [0, 2]"] ;
528 -> 529 ;
530 [label="entropy = 0.0\nsamples = 1\nvalue = [1, 0]"] ;
528 -> 530 ;
531 [label="entropy = 0.0\nsamples = 86\nvalue = [86, 0]"] ;
525 -> 531 ;
532 [label="entropy = 0.0\nsamples = 1\nvalue = [0, 1]"] ;
524 -> 532 ;
533 [label="entropy = 0.0\nsamples = 197\nvalue = [197, 0]"] ;
523 -> 533 ;
534 [label="X[369] <= 115949.0547\nentropy = 0.2366\nsamples = 387\nvalue = [372, 15]"] ;
522 -> 534 ;
535 [label="entropy = 0.0\nsamples = 1\nvalue = [0, 1]"] ;
534 -> 535 ;
536 [label="X[369] <= 118917.8281\nentropy = 0.2249\nsamples = 386\nvalue = [372, 14]"] ;
534 -> 536 ;
537 [label="X[369] <= 118762.0781\nentropy = 0.2504\nsamples = 335\nvalue = [321, 14]"] ;
536 -> 537 ;
538 [label="X[0] <= 139193.0\nentropy = 0.2373\nsamples = 334\nvalue = [321, 13]"] ;
537 -> 538 ;
539 [label="X[0] <= 138620.0\nentropy = 0.2542\nsamples = 305\nvalue = [292, 13]"] ;
538 -> 539 ;
540 [label="X[0] <= 2419.0\nentropy = 0.2399\nsamples = 304\nvalue = [292, 12]"] ;
539 -> 540 ;
541 [label="X[2] <= 24.5\nentropy = 0.8113\nsamples = 4\nvalue = [3, 1]"] ;
540 -> 541 ;
542 [label="entropy = 0.0\nsamples = 3\nvalue = [3, 0]"] ;
541 -> 542 ;
543 [label="entropy = 0.0\nsamples = 1\nvalue = [0, 1]"] ;
541 -> 543 ;
544 [label="X[0] <= 135005.5\nentropy = 0.2268\nsamples = 300\nvalue = [289, 11]"] ;
540 -> 544 ;
545 [label="X[326] <= 1.5\nentropy = 0.2136\nsamples = 295\nvalue = [285, 10]"] ;
544 -> 545 ;
546 [label="X[0] <= 26529.5\nentropy = 0.2006\nsamples = 288\nvalue = [279, 9]"] ;
545 -> 546 ;
547 [label="X[0] <= 25451.5\nentropy = 0.3373\nsamples = 48\nvalue = [45, 3]"] ;
546 -> 547 ;
548 [label="X[0] <= 12770.0\nentropy = 0.1537\nsamples = 45\nvalue = [44, 1]"] ;
547 -> 548 ;
549 [label="X[0] <= 11127.0\nentropy = 0.3373\nsamples = 16\nvalue = [15, 1]"] ;
548 -> 549 ;
550 [label="entropy = 0.0\nsamples = 15\nvalue = [15, 0]"] ;
549 -> 550 ;
551 [label="entropy = 0.0\nsamples = 1\nvalue = [0, 1]"] ;
549 -> 551 ;
552 [label="entropy = 0.0\nsamples = 29\nvalue = [29, 0]"] ;
548 -> 552 ;
553 [label="X[2] <= 25.5\nentropy = 0.9183\nsamples = 3\nvalue = [1, 2]"] ;
547 -> 553 ;
554 [label="entropy = 0.0\nsamples = 2\nvalue = [0, 2]"] ;
553 -> 554 ;
555 [label="entropy = 0.0\nsamples = 1\nvalue = [1, 0]"] ;
553 -> 555 ;
556 [label="X[0] <= 56368.0\nentropy = 0.1687\nsamples = 240\nvalue = [234, 6]"] ;
546 -> 556 ;
557 [label="entropy = 0.0\nsamples = 70\nvalue = [70, 0]"] ;
556 -> 557 ;
558 [label="X[0] <= 56655.0\nentropy = 0.2203\nsamples = 170\nvalue = [164, 6]"] ;
556 -> 558 ;
559 [label="entropy = 0.0\nsamples = 1\nvalue = [0, 1]"] ;
558 -> 559 ;
560 [label="X[0] <= 69644.5\nentropy = 0.1923\nsamples = 169\nvalue = [164, 5]"] ;
558 -> 560 ;
561 [label="entropy = 0.0\nsamples = 34\nvalue = [34, 0]"] ;
560 -> 561 ;
562 [label="X[0] <= 70188.5\nentropy = 0.2285\nsamples = 135\nvalue = [130, 5]"] ;
560 -> 562 ;
563 [label="entropy = 0.0\nsamples = 1\nvalue = [0, 1]"] ;
562 -> 563 ;
564 [label="X[0] <= 91553.5\nentropy = 0.1936\nsamples = 134\nvalue = [130, 4]"] ;
562 -> 564 ;
565 [label="entropy = 0.0\nsamples = 34\nvalue = [34, 0]"] ;
564 -> 565 ;
566 [label="X[0] <= 92309.5\nentropy = 0.2423\nsamples = 100\nvalue = [96, 4]"] ;
564 -> 566 ;
567 [label="entropy = 0.0\nsamples = 1\nvalue = [0, 1]"] ;
566 -> 567 ;
568 [label="X[2] <= 24.5\nentropy = 0.1959\nsamples = 99\nvalue = [96, 3]"] ;
566 -> 568 ;
569 [label="X[0] <= 129476.0\nentropy = 0.3138\nsamples = 53\nvalue = [50, 3]"] ;
568 -> 569 ;
570 [label="X[0] <= 128716.5\nentropy = 0.3712\nsamples = 42\nvalue = [39, 3]"] ;
569 -> 570 ;
571 [label="X[0] <= 110353.0\nentropy = 0.2812\nsamples = 41\nvalue = [39, 2]"] ;
570 -> 571 ;
572 [label="X[0] <= 109842.0\nentropy = 0.5033\nsamples = 18\nvalue = [16, 2]"] ;
571 -> 572 ;
573 [label="X[0] <= 99426.5\nentropy = 0.3228\nsamples = 17\nvalue = [16, 1]"] ;
572 -> 573 ;
574 [label="entropy = 0.0\nsamples = 8\nvalue = [8, 0]"] ;
573 -> 574 ;
575 [label="X[0] <= 100583.0\nentropy = 0.5033\nsamples = 9\nvalue = [8, 1]"] ;
573 -> 575 ;
576 [label="entropy = 0.0\nsamples = 1\nvalue = [0, 1]"] ;
575 -> 576 ;
577 [label="entropy = 0.0\nsamples = 8\nvalue = [8, 0]"] ;
575 -> 577 ;
578 [label="entropy = 0.0\nsamples = 1\nvalue = [0, 1]"] ;
572 -> 578 ;
579 [label="entropy = 0.0\nsamples = 23\nvalue = [23, 0]"] ;
571 -> 579 ;
580 [label="entropy = 0.0\nsamples = 1\nvalue = [0, 1]"] ;
570 -> 580 ;
581 [label="entropy = 0.0\nsamples = 11\nvalue = [11, 0]"] ;
569 -> 581 ;
582 [label="entropy = 0.0\nsamples = 46\nvalue = [46, 0]"] ;
568 -> 582 ;
583 [label="X[0] <= 36679.5\nentropy = 0.5917\nsamples = 7\nvalue = [6, 1]"] ;
545 -> 583 ;
584 [label="entropy = 0.0\nsamples = 3\nvalue = [3, 0]"] ;
583 -> 584 ;
585 [label="X[0] <= 57458.0\nentropy = 0.8113\nsamples = 4\nvalue = [3, 1]"] ;
583 -> 585 ;
586 [label="entropy = 0.0\nsamples = 1\nvalue = [0, 1]"] ;
585 -> 586 ;
587 [label="entropy = 0.0\nsamples = 3\nvalue = [3, 0]"] ;
585 -> 587 ;
588 [label="X[0] <= 135362.5\nentropy = 0.7219\nsamples = 5\nvalue = [4, 1]"] ;
544 -> 588 ;
589 [label="entropy = 0.0\nsamples = 1\nvalue = [0, 1]"] ;
588 -> 589 ;
590 [label="entropy = 0.0\nsamples = 4\nvalue = [4, 0]"] ;
588 -> 590 ;
591 [label="entropy = 0.0\nsamples = 1\nvalue = [0, 1]"] ;
539 -> 591 ;
592 [label="entropy = 0.0\nsamples = 29\nvalue = [29, 0]"] ;
538 -> 592 ;
593 [label="entropy = 0.0\nsamples = 1\nvalue = [0, 1]"] ;
537 -> 593 ;
594 [label="entropy = 0.0\nsamples = 51\nvalue = [51, 0]"] ;
536 -> 594 ;
595 [label="entropy = 0.0\nsamples = 109\nvalue = [109, 0]"] ;
433 -> 595 ;
596 [label="entropy = 0.0\nsamples = 1\nvalue = [0, 1]"] ;
432 -> 596 ;
597 [label="X[310] <= 4.5\nentropy = 0.0661\nsamples = 3191\nvalue = [3166, 25]"] ;
235 -> 597 ;
598 [label="X[369] <= 632100.875\nentropy = 0.0639\nsamples = 3190\nvalue = [3166, 24]"] ;
597 -> 598 ;
599 [label="X[0] <= 9341.0\nentropy = 0.0586\nsamples = 3098\nvalue = [3077, 21]"] ;
598 -> 599 ;
600 [label="X[0] <= 9320.0\nentropy = 0.1492\nsamples = 187\nvalue = [183, 4]"] ;
599 -> 600 ;
601 [label="X[369] <= 161098.625\nentropy = 0.1191\nsamples = 186\nvalue = [183, 3]"] ;
600 -> 601 ;
602 [label="X[369] <= 157888.1563\nentropy = 0.2609\nsamples = 68\nvalue = [65, 3]"] ;
601 -> 602 ;
603 [label="X[152] <= 1.5\nentropy = 0.1191\nsamples = 62\nvalue = [61, 1]"] ;
602 -> 603 ;
604 [label="X[0] <= 6140.5\nentropy = 0.4395\nsamples = 11\nvalue = [10, 1]"] ;
603 -> 604 ;
605 [label="X[2] <= 23.5\nentropy = 0.7219\nsamples = 5\nvalue = [4, 1]"] ;
604 -> 605 ;
606 [label="entropy = 0.0\nsamples = 4\nvalue = [4, 0]"] ;
605 -> 606 ;
607 [label="entropy = 0.0\nsamples = 1\nvalue = [0, 1]"] ;
605 -> 607 ;
608 [label="entropy = 0.0\nsamples = 6\nvalue = [6, 0]"] ;
604 -> 608 ;
609 [label="entropy = 0.0\nsamples = 51\nvalue = [51, 0]"] ;
603 -> 609 ;
610 [label="X[0] <= 5023.5\nentropy = 0.9183\nsamples = 6\nvalue = [4, 2]"] ;
602 -> 610 ;
611 [label="X[155] <= 1.5\nentropy = 0.9183\nsamples = 3\nvalue = [1, 2]"] ;
610 -> 611 ;
612 [label="entropy = 0.0\nsamples = 1\nvalue = [1, 0]"] ;
611 -> 612 ;
613 [label="entropy = 0.0\nsamples = 2\nvalue = [0, 2]"] ;
611 -> 613 ;
614 [label="entropy = 0.0\nsamples = 3\nvalue = [3, 0]"] ;
610 -> 614 ;
615 [label="entropy = 0.0\nsamples = 118\nvalue = [118, 0]"] ;
601 -> 615 ;
616 [label="entropy = 0.0\nsamples = 1\nvalue = [0, 1]"] ;
600 -> 616 ;
617 [label="X[0] <= 52166.5\nentropy = 0.0517\nsamples = 2911\nvalue = [2894, 17]"] ;
599 -> 617 ;
618 [label="X[369] <= 291145.4688\nentropy = 0.0129\nsamples = 871\nvalue = [870, 1]"] ;
617 -> 618 ;
619 [label="entropy = 0.0\nsamples = 712\nvalue = [712, 0]"] ;
618 -> 619 ;
620 [label="X[369] <= 291878.75\nentropy = 0.055\nsamples = 159\nvalue = [158, 1]"] ;
618 -> 620 ;
621 [label="entropy = 0.0\nsamples = 1\nvalue = [0, 1]"] ;
620 -> 621 ;
622 [label="entropy = 0.0\nsamples = 158\nvalue = [158, 0]"] ;
620 -> 622 ;
623 [label="X[0] <= 52218.0\nentropy = 0.0661\nsamples = 2040\nvalue = [2024, 16]"] ;
617 -> 623 ;
624 [label="entropy = 0.0\nsamples = 1\nvalue = [0, 1]"] ;
623 -> 624 ;
625 [label="X[0] <= 76375.0\nentropy = 0.0627\nsamples = 2039\nvalue = [2024, 15]"] ;
623 -> 625 ;
626 [label="X[0] <= 76304.5\nentropy = 0.1251\nsamples = 525\nvalue = [516, 9]"] ;
625 -> 626 ;
627 [label="X[290] <= 1.5\nentropy = 0.114\nsamples = 524\nvalue = [516, 8]"] ;
626 -> 627 ;
628 [label="entropy = 0.0\nsamples = 148\nvalue = [148, 0]"] ;
627 -> 628 ;
629 [label="X[276] <= 4.5\nentropy = 0.1485\nsamples = 376\nvalue = [368, 8]"] ;
627 -> 629 ;
630 [label="X[0] <= 70223.0\nentropy = 0.1345\nsamples = 373\nvalue = [366, 7]"] ;
629 -> 630 ;
631 [label="X[0] <= 70038.5\nentropy = 0.1725\nsamples = 272\nvalue = [265, 7]"] ;
630 -> 631 ;
632 [label="X[369] <= 142893.375\nentropy = 0.1533\nsamples = 271\nvalue = [265, 6]"] ;
631 -> 632 ;
633 [label="entropy = 0.0\nsamples = 50\nvalue = [50, 0]"] ;
632 -> 633 ;
634 [label="X[369] <= 143203.5313\nentropy = 0.1799\nsamples = 221\nvalue = [215, 6]"] ;
632 -> 634 ;
635 [label="entropy = 0.0\nsamples = 1\nvalue = [0, 1]"] ;
634 -> 635 ;
636 [label="X[2] <= 24.5\nentropy = 0.1565\nsamples = 220\nvalue = [215, 5]"] ;
634 -> 636 ;
637 [label="X[0] <= 53101.0\nentropy = 0.0984\nsamples = 157\nvalue = [155, 2]"] ;
636 -> 637 ;
638 [label="X[0] <= 52899.5\nentropy = 0.5917\nsamples = 7\nvalue = [6, 1]"] ;
637 -> 638 ;
639 [label="entropy = 0.0\nsamples = 6\nvalue = [6, 0]"] ;
638 -> 639 ;
640 [label="entropy = 0.0\nsamples = 1\nvalue = [0, 1]"] ;
638 -> 640 ;
641 [label="X[369] <= 249042.5625\nentropy = 0.0578\nsamples = 150\nvalue = [149, 1]"] ;
637 -> 641 ;
642 [label="entropy = 0.0\nsamples = 118\nvalue = [118, 0]"] ;
641 -> 642 ;
643 [label="X[369] <= 250521.125\nentropy = 0.2006\nsamples = 32\nvalue = [31, 1]"] ;
641 -> 643 ;
644 [label="entropy = 0.0\nsamples = 1\nvalue = [0, 1]"] ;
643 -> 644 ;
645 [label="entropy = 0.0\nsamples = 31\nvalue = [31, 0]"] ;
643 -> 645 ;
646 [label="X[369] <= 147871.8906\nentropy = 0.2762\nsamples = 63\nvalue = [60, 3]"] ;
636 -> 646 ;
647 [label="entropy = 0.0\nsamples = 1\nvalue = [0, 1]"] ;
646 -> 647 ;
648 [label="X[0] <= 59579.0\nentropy = 0.2056\nsamples = 62\nvalue = [60, 2]"] ;
646 -> 648 ;
649 [label="X[0] <= 58778.0\nentropy = 0.4395\nsamples = 22\nvalue = [20, 2]"] ;
648 -> 649 ;
650 [label="entropy = 0.0\nsamples = 18\nvalue = [18, 0]"] ;
649 -> 650 ;
651 [label="X[369] <= 211472.5\nentropy = 1.0\nsamples = 4\nvalue = [2, 2]"] ;
649 -> 651 ;
652 [label="entropy = 0.0\nsamples = 1\nvalue = [1, 0]"] ;
651 -> 652 ;
653 [label="X[369] <= 344037.0625\nentropy = 0.9183\nsamples = 3\nvalue = [1, 2]"] ;
651 -> 653 ;
654 [label="entropy = 0.0\nsamples = 2\nvalue = [0, 2]"] ;
653 -> 654 ;
655 [label="entropy = 0.0\nsamples = 1\nvalue = [1, 0]"] ;
653 -> 655 ;
656 [label="entropy = 0.0\nsamples = 40\nvalue = [40, 0]"] ;
648 -> 656 ;
657 [label="entropy = 0.0\nsamples = 1\nvalue = [0, 1]"] ;
631 -> 657 ;
658 [label="entropy = 0.0\nsamples = 101\nvalue = [101, 0]"] ;
630 -> 658 ;
659 [label="X[369] <= 176615.5469\nentropy = 0.9183\nsamples = 3\nvalue = [2, 1]"] ;
629 -> 659 ;
660 [label="entropy = 0.0\nsamples = 1\nvalue = [0, 1]"] ;
659 -> 660 ;
661 [label="entropy = 0.0\nsamples = 2\nvalue = [2, 0]"] ;
659 -> 661 ;
662 [label="entropy = 0.0\nsamples = 1\nvalue = [0, 1]"] ;
626 -> 662 ;
663 [label="X[0] <= 128287.5\nentropy = 0.0373\nsamples = 1514\nvalue = [1508, 6]"] ;
625 -> 663 ;
664 [label="X[369] <= 254975.375\nentropy = 0.0111\nsamples = 1027\nvalue = [1026, 1]"] ;
663 -> 664 ;
665 [label="entropy = 0.0\nsamples = 809\nvalue = [809, 0]"] ;
664 -> 665 ;
666 [label="X[369] <= 255388.3438\nentropy = 0.0422\nsamples = 218\nvalue = [217, 1]"] ;
664 -> 666 ;
667 [label="entropy = 0.0\nsamples = 1\nvalue = [0, 1]"] ;
666 -> 667 ;
668 [label="entropy = 0.0\nsamples = 217\nvalue = [217, 0]"] ;
666 -> 668 ;
669 [label="X[0] <= 128331.0\nentropy = 0.0826\nsamples = 487\nvalue = [482, 5]"] ;
663 -> 669 ;
670 [label="entropy = 0.0\nsamples = 1\nvalue = [0, 1]"] ;
669 -> 670 ;
671 [label="X[0] <= 143669.5\nentropy = 0.0688\nsamples = 486\nvalue = [482, 4]"] ;
669 -> 671 ;
672 [label="X[0] <= 143640.5\nentropy = 0.0979\nsamples = 316\nvalue = [312, 4]"] ;
671 -> 672 ;
673 [label="X[0] <= 134693.5\nentropy = 0.0776\nsamples = 315\nvalue = [312, 3]"] ;
672 -> 673 ;
674 [label="entropy = 0.0\nsamples = 146\nvalue = [146, 0]"] ;
673 -> 674 ;
675 [label="X[0] <= 134728.5\nentropy = 0.1286\nsamples = 169\nvalue = [166, 3]"] ;
673 -> 675 ;
676 [label="entropy = 0.0\nsamples = 1\nvalue = [0, 1]"] ;
675 -> 676 ;
677 [label="X[369] <= 145433.2188\nentropy = 0.0932\nsamples = 168\nvalue = [166, 2]"] ;
675 -> 677 ;
678 [label="X[369] <= 144555.3125\nentropy = 0.3228\nsamples = 34\nvalue = [32, 2]"] ;
677 -> 678 ;
679 [label="X[77] <= 0.5\nentropy = 0.1959\nsamples = 33\nvalue = [32, 1]"] ;
678 -> 679 ;
680 [label="X[369] <= 132594.3125\nentropy = 0.5033\nsamples = 9\nvalue = [8, 1]"] ;
679 -> 680 ;
681 [label="X[0] <= 136393.0\nentropy = 1.0\nsamples = 2\nvalue = [1, 1]"] ;
680 -> 681 ;
682 [label="entropy = 0.0\nsamples = 1\nvalue = [1, 0]"] ;
681 -> 682 ;
683 [label="entropy = 0.0\nsamples = 1\nvalue = [0, 1]"] ;
681 -> 683 ;
684 [label="entropy = 0.0\nsamples = 7\nvalue = [7, 0]"] ;
680 -> 684 ;
685 [label="entropy = 0.0\nsamples = 24\nvalue = [24, 0]"] ;
679 -> 685 ;
686 [label="entropy = 0.0\nsamples = 1\nvalue = [0, 1]"] ;
678 -> 686 ;
687 [label="entropy = 0.0\nsamples = 134\nvalue = [134, 0]"] ;
677 -> 687 ;
688 [label="entropy = 0.0\nsamples = 1\nvalue = [0, 1]"] ;
672 -> 688 ;
689 [label="entropy = 0.0\nsamples = 170\nvalue = [170, 0]"] ;
671 -> 689 ;
690 [label="X[369] <= 642500.3125\nentropy = 0.2073\nsamples = 92\nvalue = [89, 3]"] ;
598 -> 690 ;
691 [label="X[2] <= 24.5\nentropy = 0.971\nsamples = 5\nvalue = [3, 2]"] ;
690 -> 691 ;
692 [label="X[369] <= 641390.8125\nentropy = 0.8113\nsamples = 4\nvalue = [3, 1]"] ;
691 -> 692 ;
693 [label="entropy = 0.0\nsamples = 3\nvalue = [3, 0]"] ;
692 -> 693 ;
694 [label="entropy = 0.0\nsamples = 1\nvalue = [0, 1]"] ;
692 -> 694 ;
695 [label="entropy = 0.0\nsamples = 1\nvalue = [0, 1]"] ;
691 -> 695 ;
696 [label="X[0] <= 142628.0\nentropy = 0.0905\nsamples = 87\nvalue = [86, 1]"] ;
690 -> 696 ;
697 [label="entropy = 0.0\nsamples = 79\nvalue = [79, 0]"] ;
696 -> 697 ;
698 [label="X[0] <= 143976.5\nentropy = 0.5436\nsamples = 8\nvalue = [7, 1]"] ;
696 -> 698 ;
699 [label="entropy = 0.0\nsamples = 1\nvalue = [0, 1]"] ;
698 -> 699 ;
700 [label="entropy = 0.0\nsamples = 7\nvalue = [7, 0]"] ;
698 -> 700 ;
701 [label="entropy = 0.0\nsamples = 1\nvalue = [0, 1]"] ;
597 -> 701 ;
702 [label="X[11] <= 2223.6299\nentropy = 0.2881\nsamples = 853\nvalue = [810, 43]"] ;
234 -> 702 ;
703 [label="X[369] <= 117381.5625\nentropy = 0.2786\nsamples = 851\nvalue = [810, 41]"] ;
702 -> 703 ;
704 [label="X[326] <= 1.5\nentropy = 0.3578\nsamples = 516\nvalue = [481, 35]"] ;
703 -> 704 ;
705 [label="X[0] <= 14852.5\nentropy = 0.4076\nsamples = 417\nvalue = [383, 34]"] ;
704 -> 705 ;
706 [label="entropy = 0.0\nsamples = 38\nvalue = [38, 0]"] ;
705 -> 706 ;
707 [label="X[0] <= 14966.0\nentropy = 0.4355\nsamples = 379\nvalue = [345, 34]"] ;
705 -> 707 ;
708 [label="entropy = 0.0\nsamples = 1\nvalue = [0, 1]"] ;
707 -> 708 ;
709 [label="X[0] <= 35930.0\nentropy = 0.4274\nsamples = 378\nvalue = [345, 33]"] ;
707 -> 709 ;
710 [label="X[0] <= 21175.5\nentropy = 0.1485\nsamples = 47\nvalue = [46, 1]"] ;
709 -> 710 ;
711 [label="X[0] <= 21140.0\nentropy = 0.3712\nsamples = 14\nvalue = [13, 1]"] ;
710 -> 711 ;
712 [label="entropy = 0.0\nsamples = 13\nvalue = [13, 0]"] ;
711 -> 712 ;
713 [label="entropy = 0.0\nsamples = 1\nvalue = [0, 1]"] ;
711 -> 713 ;
714 [label="entropy = 0.0\nsamples = 33\nvalue = [33, 0]"] ;
710 -> 714 ;
715 [label="X[0] <= 36944.0\nentropy = 0.4584\nsamples = 331\nvalue = [299, 32]"] ;
709 -> 715 ;
716 [label="X[2] <= 23.5\nentropy = 0.9183\nsamples = 3\nvalue = [1, 2]"] ;
715 -> 716 ;
717 [label="entropy = 0.0\nsamples = 2\nvalue = [0, 2]"] ;
716 -> 717 ;
718 [label="entropy = 0.0\nsamples = 1\nvalue = [1, 0]"] ;
716 -> 718 ;
719 [label="X[2] <= 23.5\nentropy = 0.4413\nsamples = 328\nvalue = [298, 30]"] ;
715 -> 719 ;
720 [label="X[369] <= 102448.0781\nentropy = 0.3521\nsamples = 196\nvalue = [183, 13]"] ;
719 -> 720 ;
721 [label="X[369] <= 64864.8438\nentropy = 0.133\nsamples = 108\nvalue = [106, 2]"] ;
720 -> 721 ;
722 [label="X[369] <= 63736.9492\nentropy = 0.4395\nsamples = 22\nvalue = [20, 2]"] ;
721 -> 722 ;
723 [label="X[0] <= 48112.0\nentropy = 0.2762\nsamples = 21\nvalue = [20, 1]"] ;
722 -> 723 ;
724 [label="X[369] <= 60371.3281\nentropy = 0.9183\nsamples = 3\nvalue = [2, 1]"] ;
723 -> 724 ;
725 [label="entropy = 0.0\nsamples = 2\nvalue = [2, 0]"] ;
724 -> 725 ;
726 [label="entropy = 0.0\nsamples = 1\nvalue = [0, 1]"] ;
724 -> 726 ;
727 [label="entropy = 0.0\nsamples = 18\nvalue = [18, 0]"] ;
723 -> 727 ;
728 [label="entropy = 0.0\nsamples = 1\nvalue = [0, 1]"] ;
722 -> 728 ;
729 [label="entropy = 0.0\nsamples = 86\nvalue = [86, 0]"] ;
721 -> 729 ;
730 [label="X[369] <= 103594.2344\nentropy = 0.5436\nsamples = 88\nvalue = [77, 11]"] ;
720 -> 730 ;
731 [label="entropy = 0.0\nsamples = 1\nvalue = [0, 1]"] ;
730 -> 731 ;
732 [label="X[0] <= 118706.5\nentropy = 0.5146\nsamples = 87\nvalue = [77, 10]"] ;
730 -> 732 ;
733 [label="X[0] <= 117723.0\nentropy = 0.6374\nsamples = 62\nvalue = [52, 10]"] ;
732 -> 733 ;
734 [label="X[281] <= 0.5\nentropy = 0.5726\nsamples = 59\nvalue = [51, 8]"] ;
733 -> 734 ;
735 [label="X[0] <= 84943.0\nentropy = 0.6343\nsamples = 50\nvalue = [42, 8]"] ;
734 -> 735 ;
736 [label="X[0] <= 82177.5\nentropy = 0.7496\nsamples = 28\nvalue = [22, 6]"] ;
735 -> 736 ;
737 [label="X[325] <= 7.5\nentropy = 0.6343\nsamples = 25\nvalue = [21, 4]"] ;
736 -> 737 ;
738 [label="X[0] <= 44324.0\nentropy = 0.5436\nsamples = 24\nvalue = [21, 3]"] ;
737 -> 738 ;
739 [label="X[369] <= 109370.625\nentropy = 1.0\nsamples = 2\nvalue = [1, 1]"] ;
738 -> 739 ;
740 [label="entropy = 0.0\nsamples = 1\nvalue = [0, 1]"] ;
739 -> 740 ;
741 [label="entropy = 0.0\nsamples = 1\nvalue = [1, 0]"] ;
739 -> 741 ;
742 [label="X[369] <= 116172.6563\nentropy = 0.4395\nsamples = 22\nvalue = [20, 2]"] ;
738 -> 742 ;
743 [label="entropy = 0.0\nsamples = 6\nvalue = [6, 0]"] ;
742 -> 743 ;
744 [label="X[369] <= 116881.4688\nentropy = 0.5436\nsamples = 16\nvalue = [14, 2]"] ;
742 -> 744 ;
745 [label="entropy = 0.0\nsamples = 1\nvalue = [0, 1]"] ;
744 -> 745 ;
746 [label="X[0] <= 72867.5\nentropy = 0.3534\nsamples = 15\nvalue = [14, 1]"] ;
744 -> 746 ;
747 [label="entropy = 0.0\nsamples = 10\nvalue = [10, 0]"] ;
746 -> 747 ;
748 [label="X[0] <= 74066.0\nentropy = 0.7219\nsamples = 5\nvalue = [4, 1]"] ;
746 -> 748 ;
749 [label="entropy = 0.0\nsamples = 1\nvalue = [0, 1]"] ;
748 -> 749 ;
750 [label="entropy = 0.0\nsamples = 4\nvalue = [4, 0]"] ;
748 -> 750 ;
751 [label="entropy = 0.0\nsamples = 1\nvalue = [0, 1]"] ;
737 -> 751 ;
752 [label="X[325] <= 6.0\nentropy = 0.9183\nsamples = 3\nvalue = [1, 2]"] ;
736 -> 752 ;
753 [label="entropy = 0.0\nsamples = 2\nvalue = [0, 2]"] ;
752 -> 753 ;
754 [label="entropy = 0.0\nsamples = 1\nvalue = [1, 0]"] ;
752 -> 754 ;
755 [label="X[0] <= 95480.5\nentropy = 0.4395\nsamples = 22\nvalue = [20, 2]"] ;
735 -> 755 ;
756 [label="entropy = 0.0\nsamples = 8\nvalue = [8, 0]"] ;
755 -> 756 ;
757 [label="X[0] <= 96831.0\nentropy = 0.5917\nsamples = 14\nvalue = [12, 2]"] ;
755 -> 757 ;
758 [label="entropy = 0.0\nsamples = 1\nvalue = [0, 1]"] ;
757 -> 758 ;
759 [label="X[325] <= 4.5\nentropy = 0.3912\nsamples = 13\nvalue = [12, 1]"] ;
757 -> 759 ;
760 [label="entropy = 0.0\nsamples = 11\nvalue = [11, 0]"] ;
759 -> 760 ;
761 [label="X[278] <= 1.5\nentropy = 1.0\nsamples = 2\nvalue = [1, 1]"] ;
759 -> 761 ;
762 [label="entropy = 0.0\nsamples = 1\nvalue = [0, 1]"] ;
761 -> 762 ;
763 [label="entropy = 0.0\nsamples = 1\nvalue = [1, 0]"] ;
761 -> 763 ;
764 [label="entropy = 0.0\nsamples = 9\nvalue = [9, 0]"] ;
734 -> 764 ;
765 [label="X[278] <= 1.5\nentropy = 0.9183\nsamples = 3\nvalue = [1, 2]"] ;
733 -> 765 ;
766 [label="entropy = 0.0\nsamples = 2\nvalue = [0, 2]"] ;
765 -> 766 ;
767 [label="entropy = 0.0\nsamples = 1\nvalue = [1, 0]"] ;
765 -> 767 ;
768 [label="entropy = 0.0\nsamples = 25\nvalue = [25, 0]"] ;
732 -> 768 ;
769 [label="X[369] <= 87521.5781\nentropy = 0.5541\nsamples = 132\nvalue = [115, 17]"] ;
719 -> 769 ;
770 [label="X[0] <= 69981.5\nentropy = 0.7838\nsamples = 60\nvalue = [46, 14]"] ;
769 -> 770 ;
771 [label="entropy = 0.0\nsamples = 14\nvalue = [14, 0]"] ;
770 -> 771 ;
772 [label="X[369] <= 86370.6719\nentropy = 0.8865\nsamples = 46\nvalue = [32, 14]"] ;
770 -> 772 ;
773 [label="X[2] <= 25.5\nentropy = 0.8454\nsamples = 44\nvalue = [32, 12]"] ;
772 -> 773 ;
774 [label="X[0] <= 70780.0\nentropy = 0.684\nsamples = 33\nvalue = [27, 6]"] ;
773 -> 774 ;
775 [label="entropy = 0.0\nsamples = 2\nvalue = [0, 2]"] ;
774 -> 775 ;
776 [label="X[325] <= 13.5\nentropy = 0.5548\nsamples = 31\nvalue = [27, 4]"] ;
774 -> 776 ;
777 [label="X[327] <= 4.5\nentropy = 0.469\nsamples = 30\nvalue = [27, 3]"] ;
776 -> 777 ;
778 [label="X[369] <= 80782.6641\nentropy = 0.7496\nsamples = 14\nvalue = [11, 3]"] ;
777 -> 778 ;
779 [label="X[369] <= 80036.7031\nentropy = 0.9183\nsamples = 9\nvalue = [6, 3]"] ;
778 -> 779 ;
780 [label="X[0] <= 129833.5\nentropy = 0.8113\nsamples = 8\nvalue = [6, 2]"] ;
779 -> 780 ;
781 [label="entropy = 0.0\nsamples = 5\nvalue = [5, 0]"] ;
780 -> 781 ;
782 [label="X[0] <= 143974.0\nentropy = 0.9183\nsamples = 3\nvalue = [1, 2]"] ;
780 -> 782 ;
783 [label="entropy = 0.0\nsamples = 2\nvalue = [0, 2]"] ;
782 -> 783 ;
784 [label="entropy = 0.0\nsamples = 1\nvalue = [1, 0]"] ;
782 -> 784 ;
785 [label="entropy = 0.0\nsamples = 1\nvalue = [0, 1]"] ;
779 -> 785 ;
786 [label="entropy = 0.0\nsamples = 5\nvalue = [5, 0]"] ;
778 -> 786 ;
787 [label="entropy = 0.0\nsamples = 16\nvalue = [16, 0]"] ;
777 -> 787 ;
788 [label="entropy = 0.0\nsamples = 1\nvalue = [0, 1]"] ;
776 -> 788 ;
789 [label="X[290] <= 0.5\nentropy = 0.994\nsamples = 11\nvalue = [5, 6]"] ;
773 -> 789 ;
790 [label="entropy = 0.0\nsamples = 3\nvalue = [3, 0]"] ;
789 -> 790 ;
791 [label="X[280] <= 1.5\nentropy = 0.8113\nsamples = 8\nvalue = [2, 6]"] ;
789 -> 791 ;
792 [label="X[325] <= 4.5\nentropy = 1.0\nsamples = 4\nvalue = [2, 2]"] ;
791 -> 792 ;
793 [label="X[0] <= 82191.5\nentropy = 0.9183\nsamples = 3\nvalue = [1, 2]"] ;
792 -> 793 ;
794 [label="entropy = 0.0\nsamples = 1\nvalue = [1, 0]"] ;
793 -> 794 ;
795 [label="entropy = 0.0\nsamples = 2\nvalue = [0, 2]"] ;
793 -> 795 ;
796 [label="entropy = 0.0\nsamples = 1\nvalue = [1, 0]"] ;
792 -> 796 ;
797 [label="entropy = 0.0\nsamples = 4\nvalue = [0, 4]"] ;
791 -> 797 ;
798 [label="entropy = 0.0\nsamples = 2\nvalue = [0, 2]"] ;
772 -> 798 ;
799 [label="X[0] <= 150134.5\nentropy = 0.2499\nsamples = 72\nvalue = [69, 3]"] ;
769 -> 799 ;
800 [label="X[327] <= 4.5\nentropy = 0.1851\nsamples = 71\nvalue = [69, 2]"] ;
799 -> 800 ;
801 [label="X[0] <= 113807.5\nentropy = 0.2668\nsamples = 44\nvalue = [42, 2]"] ;
800 -> 801 ;
802 [label="X[0] <= 113163.0\nentropy = 0.3621\nsamples = 29\nvalue = [27, 2]"] ;
801 -> 802 ;
803 [label="X[369] <= 116642.4688\nentropy = 0.2223\nsamples = 28\nvalue = [27, 1]"] ;
802 -> 803 ;
804 [label="entropy = 0.0\nsamples = 20\nvalue = [20, 0]"] ;
803 -> 804 ;
805 [label="X[0] <= 63709.0\nentropy = 0.5436\nsamples = 8\nvalue = [7, 1]"] ;
803 -> 805 ;
806 [label="X[0] <= 50823.0\nentropy = 0.9183\nsamples = 3\nvalue = [2, 1]"] ;
805 -> 806 ;
807 [label="entropy = 0.0\nsamples = 2\nvalue = [2, 0]"] ;
806 -> 807 ;
808 [label="entropy = 0.0\nsamples = 1\nvalue = [0, 1]"] ;
806 -> 808 ;
809 [label="entropy = 0.0\nsamples = 5\nvalue = [5, 0]"] ;
805 -> 809 ;
810 [label="entropy = 0.0\nsamples = 1\nvalue = [0, 1]"] ;
802 -> 810 ;
811 [label="entropy = 0.0\nsamples = 15\nvalue = [15, 0]"] ;
801 -> 811 ;
812 [label="entropy = 0.0\nsamples = 27\nvalue = [27, 0]"] ;
800 -> 812 ;
813 [label="entropy = 0.0\nsamples = 1\nvalue = [0, 1]"] ;
799 -> 813 ;
814 [label="X[1] <= 1.5\nentropy = 0.0815\nsamples = 99\nvalue = [98, 1]"] ;
704 -> 814 ;
815 [label="X[165] <= 24.0\nentropy = 1.0\nsamples = 2\nvalue = [1, 1]"] ;
814 -> 815 ;
816 [label="entropy = 0.0\nsamples = 1\nvalue = [1, 0]"] ;
815 -> 816 ;
817 [label="entropy = 0.0\nsamples = 1\nvalue = [0, 1]"] ;
815 -> 817 ;
818 [label="entropy = 0.0\nsamples = 97\nvalue = [97, 0]"] ;
814 -> 818 ;
819 [label="X[0] <= 130604.5\nentropy = 0.1295\nsamples = 335\nvalue = [329, 6]"] ;
703 -> 819 ;
820 [label="X[329] <= 1.515\nentropy = 0.0589\nsamples = 293\nvalue = [291, 2]"] ;
819 -> 820 ;
821 [label="X[0] <= 14845.5\nentropy = 0.033\nsamples = 292\nvalue = [291, 1]"] ;
820 -> 821 ;
822 [label="X[0] <= 14769.5\nentropy = 0.1461\nsamples = 48\nvalue = [47, 1]"] ;
821 -> 822 ;
823 [label="entropy = 0.0\nsamples = 47\nvalue = [47, 0]"] ;
822 -> 823 ;
824 [label="entropy = 0.0\nsamples = 1\nvalue = [0, 1]"] ;
822 -> 824 ;
825 [label="entropy = 0.0\nsamples = 244\nvalue = [244, 0]"] ;
821 -> 825 ;
826 [label="entropy = 0.0\nsamples = 1\nvalue = [0, 1]"] ;
820 -> 826 ;
827 [label="X[276] <= 4.5\nentropy = 0.4537\nsamples = 42\nvalue = [38, 4]"] ;
819 -> 827 ;
828 [label="X[369] <= 584267.25\nentropy = 0.2975\nsamples = 38\nvalue = [36, 2]"] ;
827 -> 828 ;
829 [label="X[324] <= 1.5\nentropy = 0.1831\nsamples = 36\nvalue = [35, 1]"] ;
828 -> 829 ;
830 [label="entropy = 0.0\nsamples = 28\nvalue = [28, 0]"] ;
829 -> 830 ;
831 [label="X[0] <= 144679.0\nentropy = 0.5436\nsamples = 8\nvalue = [7, 1]"] ;
829 -> 831 ;
832 [label="entropy = 0.0\nsamples = 7\nvalue = [7, 0]"] ;
831 -> 832 ;
833 [label="entropy = 0.0\nsamples = 1\nvalue = [0, 1]"] ;
831 -> 833 ;
834 [label="X[369] <= 666325.3125\nentropy = 1.0\nsamples = 2\nvalue = [1, 1]"] ;
828 -> 834 ;
835 [label="entropy = 0.0\nsamples = 1\nvalue = [0, 1]"] ;
834 -> 835 ;
836 [label="entropy = 0.0\nsamples = 1\nvalue = [1, 0]"] ;
834 -> 836 ;
837 [label="X[183] <= 2065.2148\nentropy = 1.0\nsamples = 4\nvalue = [2, 2]"] ;
827 -> 837 ;
838 [label="entropy = 0.0\nsamples = 2\nvalue = [0, 2]"] ;
837 -> 838 ;
839 [label="entropy = 0.0\nsamples = 2\nvalue = [2, 0]"] ;
837 -> 839 ;
840 [label="entropy = 0.0\nsamples = 2\nvalue = [0, 2]"] ;
702 -> 840 ;
841 [label="X[2] <= 23.5\nentropy = 0.0502\nsamples = 24654\nvalue = [24515, 139]"] ;
1 -> 841 ;
842 [label="X[324] <= 4.5\nentropy = 0.0231\nsamples = 14616\nvalue = [14583, 33]"] ;
841 -> 842 ;
843 [label="X[330] <= 2.055\nentropy = 0.0146\nsamples = 12767\nvalue = [12750, 17]"] ;
842 -> 843 ;
844 [label="X[331] <= 4794.0\nentropy = 0.0239\nsamples = 5962\nvalue = [5948, 14]"] ;
843 -> 844 ;
845 [label="X[0] <= 104206.5\nentropy = 0.0224\nsamples = 5953\nvalue = [5940, 13]"] ;
844 -> 845 ;
846 [label="X[0] <= 104185.5\nentropy = 0.0292\nsamples = 4040\nvalue = [4028, 12]"] ;
845 -> 846 ;
847 [label="X[330] <= 1.935\nentropy = 0.0271\nsamples = 4039\nvalue = [4028, 11]"] ;
846 -> 847 ;
848 [label="X[152] <= 1.5\nentropy = 0.0234\nsamples = 3934\nvalue = [3925, 9]"] ;
847 -> 848 ;
849 [label="X[332] <= 2.295\nentropy = 0.066\nsamples = 511\nvalue = [507, 4]"] ;
848 -> 849 ;
850 [label="X[330] <= 0.735\nentropy = 0.1302\nsamples = 222\nvalue = [218, 4]"] ;
849 -> 850 ;
851 [label="X[0] <= 98228.5\nentropy = 0.0545\nsamples = 161\nvalue = [160, 1]"] ;
850 -> 851 ;
852 [label="entropy = 0.0\nsamples = 155\nvalue = [155, 0]"] ;
851 -> 852 ;
853 [label="X[0] <= 98896.0\nentropy = 0.65\nsamples = 6\nvalue = [5, 1]"] ;
851 -> 853 ;
854 [label="entropy = 0.0\nsamples = 1\nvalue = [0, 1]"] ;
853 -> 854 ;
855 [label="entropy = 0.0\nsamples = 5\nvalue = [5, 0]"] ;
853 -> 855 ;
856 [label="X[324] <= 1.5\nentropy = 0.2829\nsamples = 61\nvalue = [58, 3]"] ;
850 -> 856 ;
857 [label="X[330] <= 0.765\nentropy = 0.2136\nsamples = 59\nvalue = [57, 2]"] ;
856 -> 857 ;
858 [label="X[369] <= 84413.3672\nentropy = 0.9183\nsamples = 3\nvalue = [2, 1]"] ;
857 -> 858 ;
859 [label="entropy = 0.0\nsamples = 1\nvalue = [1, 0]"] ;
858 -> 859 ;
860 [label="X[369] <= 177919.0625\nentropy = 1.0\nsamples = 2\nvalue = [1, 1]"] ;
858 -> 860 ;
861 [label="entropy = 0.0\nsamples = 1\nvalue = [0, 1]"] ;
860 -> 861 ;
862 [label="entropy = 0.0\nsamples = 1\nvalue = [1, 0]"] ;
860 -> 862 ;
863 [label="X[0] <= 87613.0\nentropy = 0.1292\nsamples = 56\nvalue = [55, 1]"] ;
857 -> 863 ;
864 [label="entropy = 0.0\nsamples = 47\nvalue = [47, 0]"] ;
863 -> 864 ;
865 [label="X[0] <= 88272.5\nentropy = 0.5033\nsamples = 9\nvalue = [8, 1]"] ;
863 -> 865 ;
866 [label="entropy = 0.0\nsamples = 1\nvalue = [0, 1]"] ;
865 -> 866 ;
867 [label="entropy = 0.0\nsamples = 8\nvalue = [8, 0]"] ;
865 -> 867 ;
868 [label="X[369] <= 103669.2344\nentropy = 1.0\nsamples = 2\nvalue = [1, 1]"] ;
856 -> 868 ;
869 [label="entropy = 0.0\nsamples = 1\nvalue = [0, 1]"] ;
868 -> 869 ;
870 [label="entropy = 0.0\nsamples = 1\nvalue = [1, 0]"] ;
868 -> 870 ;
871 [label="entropy = 0.0\nsamples = 289\nvalue = [289, 0]"] ;
849 -> 871 ;
872 [label="X[0] <= 65168.0\nentropy = 0.0159\nsamples = 3423\nvalue = [3418, 5]"] ;
848 -> 872 ;
873 [label="X[0] <= 65128.5\nentropy = 0.0239\nsamples = 2129\nvalue = [2124, 5]"] ;
872 -> 873 ;
874 [label="X[329] <= 2.805\nentropy = 0.0197\nsamples = 2128\nvalue = [2124, 4]"] ;
873 -> 874 ;
875 [label="X[332] <= 3.66\nentropy = 0.1147\nsamples = 65\nvalue = [64, 1]"] ;
874 -> 875 ;
876 [label="entropy = 0.0\nsamples = 62\nvalue = [62, 0]"] ;
875 -> 876 ;
877 [label="X[369] <= 123417.1641\nentropy = 0.9183\nsamples = 3\nvalue = [2, 1]"] ;
875 -> 877 ;
878 [label="entropy = 0.0\nsamples = 2\nvalue = [2, 0]"] ;
877 -> 878 ;
879 [label="entropy = 0.0\nsamples = 1\nvalue = [0, 1]"] ;
877 -> 879 ;
880 [label="X[330] <= 1.515\nentropy = 0.0158\nsamples = 2063\nvalue = [2060, 3]"] ;
874 -> 880 ;
881 [label="X[332] <= 2.145\nentropy = 0.0071\nsamples = 1724\nvalue = [1723, 1]"] ;
880 -> 881 ;
882 [label="X[332] <= 2.115\nentropy = 0.022\nsamples = 469\nvalue = [468, 1]"] ;
881 -> 882 ;
883 [label="entropy = 0.0\nsamples = 406\nvalue = [406, 0]"] ;
882 -> 883 ;
884 [label="X[369] <= 72509.4766\nentropy = 0.1176\nsamples = 63\nvalue = [62, 1]"] ;
882 -> 884 ;
885 [label="X[369] <= 68022.6406\nentropy = 0.4395\nsamples = 11\nvalue = [10, 1]"] ;
884 -> 885 ;
886 [label="entropy = 0.0\nsamples = 10\nvalue = [10, 0]"] ;
885 -> 886 ;
887 [label="entropy = 0.0\nsamples = 1\nvalue = [0, 1]"] ;
885 -> 887 ;
888 [label="entropy = 0.0\nsamples = 52\nvalue = [52, 0]"] ;
884 -> 888 ;
889 [label="entropy = 0.0\nsamples = 1255\nvalue = [1255, 0]"] ;
881 -> 889 ;
890 [label="X[330] <= 1.545\nentropy = 0.0522\nsamples = 339\nvalue = [337, 2]"] ;
880 -> 890 ;
891 [label="entropy = 0.0\nsamples = 1\nvalue = [0, 1]"] ;
890 -> 891 ;
892 [label="X[0] <= 55129.0\nentropy = 0.0291\nsamples = 338\nvalue = [337, 1]"] ;
890 -> 892 ;
893 [label="entropy = 0.0\nsamples = 288\nvalue = [288, 0]"] ;
892 -> 893 ;
894 [label="X[0] <= 55133.5\nentropy = 0.1414\nsamples = 50\nvalue = [49, 1]"] ;
892 -> 894 ;
895 [label="entropy = 0.0\nsamples = 1\nvalue = [0, 1]"] ;
894 -> 895 ;
896 [label="entropy = 0.0\nsamples = 49\nvalue = [49, 0]"] ;
894 -> 896 ;
897 [label="entropy = 0.0\nsamples = 1\nvalue = [0, 1]"] ;
873 -> 897 ;
898 [label="entropy = 0.0\nsamples = 1294\nvalue = [1294, 0]"] ;
872 -> 898 ;
899 [label="X[276] <= 4.5\nentropy = 0.1361\nsamples = 105\nvalue = [103, 2]"] ;
847 -> 899 ;
900 [label="X[330] <= 2.025\nentropy = 0.0789\nsamples = 103\nvalue = [102, 1]"] ;
899 -> 900 ;
901 [label="entropy = 0.0\nsamples = 76\nvalue = [76, 0]"] ;
900 -> 901 ;
902 [label="X[369] <= 114694.3906\nentropy = 0.2285\nsamples = 27\nvalue = [26, 1]"] ;
900 -> 902 ;
903 [label="entropy = 0.0\nsamples = 16\nvalue = [16, 0]"] ;
902 -> 903 ;
904 [label="X[369] <= 118687.2422\nentropy = 0.4395\nsamples = 11\nvalue = [10, 1]"] ;
902 -> 904 ;
905 [label="X[0] <= 48240.0\nentropy = 0.7219\nsamples = 5\nvalue = [4, 1]"] ;
904 -> 905 ;
906 [label="entropy = 0.0\nsamples = 2\nvalue = [2, 0]"] ;
905 -> 906 ;
907 [label="X[0] <= 53223.0\nentropy = 0.9183\nsamples = 3\nvalue = [2, 1]"] ;
905 -> 907 ;
908 [label="entropy = 0.0\nsamples = 1\nvalue = [0, 1]"] ;
907 -> 908 ;
909 [label="entropy = 0.0\nsamples = 2\nvalue = [2, 0]"] ;
907 -> 909 ;
910 [label="entropy = 0.0\nsamples = 6\nvalue = [6, 0]"] ;
904 -> 910 ;
911 [label="X[332] <= 2.655\nentropy = 1.0\nsamples = 2\nvalue = [1, 1]"] ;
899 -> 911 ;
912 [label="entropy = 0.0\nsamples = 1\nvalue = [0, 1]"] ;
911 -> 912 ;
913 [label="entropy = 0.0\nsamples = 1\nvalue = [1, 0]"] ;
911 -> 913 ;
914 [label="entropy = 0.0\nsamples = 1\nvalue = [0, 1]"] ;
846 -> 914 ;
915 [label="X[0] <= 151122.5\nentropy = 0.0065\nsamples = 1913\nvalue = [1912, 1]"] ;
845 -> 915 ;
916 [label="entropy = 0.0\nsamples = 1891\nvalue = [1891, 0]"] ;
915 -> 916 ;
917 [label="X[0] <= 151180.0\nentropy = 0.2668\nsamples = 22\nvalue = [21, 1]"] ;
915 -> 917 ;
918 [label="entropy = 0.0\nsamples = 1\nvalue = [0, 1]"] ;
917 -> 918 ;
919 [label="entropy = 0.0\nsamples = 21\nvalue = [21, 0]"] ;
917 -> 919 ;
920 [label="X[277] <= 6.0\nentropy = 0.5033\nsamples = 9\nvalue = [8, 1]"] ;
844 -> 920 ;
921 [label="entropy = 0.0\nsamples = 8\nvalue = [8, 0]"] ;
920 -> 921 ;
922 [label="entropy = 0.0\nsamples = 1\nvalue = [0, 1]"] ;
920 -> 922 ;
923 [label="X[0] <= 103369.5\nentropy = 0.0056\nsamples = 6805\nvalue = [6802, 3]"] ;
843 -> 923 ;
924 [label="entropy = 0.0\nsamples = 4664\nvalue = [4664, 0]"] ;
923 -> 924 ;
925 [label="X[0] <= 103389.5\nentropy = 0.0153\nsamples = 2141\nvalue = [2138, 3]"] ;
923 -> 925 ;
926 [label="entropy = 0.0\nsamples = 1\nvalue = [0, 1]"] ;
925 -> 926 ;
927 [label="X[77] <= 0.5\nentropy = 0.0108\nsamples = 2140\nvalue = [2138, 2]"] ;
925 -> 927 ;
928 [label="X[276] <= 1.5\nentropy = 0.0488\nsamples = 367\nvalue = [365, 2]"] ;
927 -> 928 ;
929 [label="X[325] <= 1.5\nentropy = 0.0277\nsamples = 359\nvalue = [358, 1]"] ;
928 -> 929 ;
930 [label="entropy = 0.0\nsamples = 345\nvalue = [345, 0]"] ;
929 -> 930 ;
931 [label="X[327] <= 4.5\nentropy = 0.3712\nsamples = 14\nvalue = [13, 1]"] ;
929 -> 931 ;
932 [label="X[369] <= 113576.0625\nentropy = 0.8113\nsamples = 4\nvalue = [3, 1]"] ;
931 -> 932 ;
933 [label="X[329] <= 31.5\nentropy = 1.0\nsamples = 2\nvalue = [1, 1]"] ;
932 -> 933 ;
934 [label="entropy = 0.0\nsamples = 1\nvalue = [1, 0]"] ;
933 -> 934 ;
935 [label="entropy = 0.0\nsamples = 1\nvalue = [0, 1]"] ;
933 -> 935 ;
936 [label="entropy = 0.0\nsamples = 2\nvalue = [2, 0]"] ;
932 -> 936 ;
937 [label="entropy = 0.0\nsamples = 10\nvalue = [10, 0]"] ;
931 -> 937 ;
938 [label="X[329] <= 48.0\nentropy = 0.5436\nsamples = 8\nvalue = [7, 1]"] ;
928 -> 938 ;
939 [label="entropy = 0.0\nsamples = 1\nvalue = [0, 1]"] ;
938 -> 939 ;
940 [label="entropy = 0.0\nsamples = 7\nvalue = [7, 0]"] ;
938 -> 940 ;
941 [label="entropy = 0.0\nsamples = 1773\nvalue = [1773, 0]"] ;
927 -> 941 ;
942 [label="X[278] <= 16.5\nentropy = 0.0717\nsamples = 1849\nvalue = [1833, 16]"] ;
842 -> 942 ;
943 [label="X[13] <= 1785.0\nentropy = 0.0584\nsamples = 1778\nvalue = [1766, 12]"] ;
942 -> 943 ;
944 [label="X[191] <= -33.69\nentropy = 0.0504\nsamples = 1765\nvalue = [1755, 10]"] ;
943 -> 944 ;
945 [label="X[260] <= 0.5\nentropy = 1.0\nsamples = 2\nvalue = [1, 1]"] ;
944 -> 945 ;
946 [label="entropy = 0.0\nsamples = 1\nvalue = [1, 0]"] ;
945 -> 946 ;
947 [label="entropy = 0.0\nsamples = 1\nvalue = [0, 1]"] ;
945 -> 947 ;
948 [label="X[326] <= 4.5\nentropy = 0.0462\nsamples = 1763\nvalue = [1754, 9]"] ;
944 -> 948 ;
949 [label="X[290] <= 1.5\nentropy = 0.0679\nsamples = 1111\nvalue = [1102, 9]"] ;
948 -> 949 ;
950 [label="entropy = 0.0\nsamples = 364\nvalue = [364, 0]"] ;
949 -> 950 ;
951 [label="X[329] <= 69.33\nentropy = 0.0941\nsamples = 747\nvalue = [738, 9]"] ;
949 -> 951 ;
952 [label="X[331] <= 13.11\nentropy = 0.1673\nsamples = 283\nvalue = [276, 7]"] ;
951 -> 952 ;
953 [label="entropy = 0.0\nsamples = 147\nvalue = [147, 0]"] ;
952 -> 953 ;
954 [label="X[332] <= 11.535\nentropy = 0.2926\nsamples = 136\nvalue = [129, 7]"] ;
952 -> 954 ;
955 [label="X[278] <= 4.5\nentropy = 1.0\nsamples = 4\nvalue = [2, 2]"] ;
954 -> 955 ;
956 [label="entropy = 0.0\nsamples = 2\nvalue = [2, 0]"] ;
955 -> 956 ;
957 [label="entropy = 0.0\nsamples = 2\nvalue = [0, 2]"] ;
955 -> 957 ;
958 [label="X[194] <= 2.5\nentropy = 0.2325\nsamples = 132\nvalue = [127, 5]"] ;
954 -> 958 ;
959 [label="entropy = 0.0\nsamples = 79\nvalue = [79, 0]"] ;
958 -> 959 ;
960 [label="X[325] <= 10.5\nentropy = 0.4508\nsamples = 53\nvalue = [48, 5]"] ;
958 -> 960 ;
961 [label="X[330] <= 0.105\nentropy = 0.2539\nsamples = 47\nvalue = [45, 2]"] ;
960 -> 961 ;
962 [label="X[183] <= 45.825\nentropy = 0.8631\nsamples = 7\nvalue = [5, 2]"] ;
961 -> 962 ;
963 [label="entropy = 0.0\nsamples = 4\nvalue = [4, 0]"] ;
962 -> 963 ;
964 [label="X[165] <= 55.5\nentropy = 0.9183\nsamples = 3\nvalue = [1, 2]"] ;
962 -> 964 ;
965 [label="entropy = 0.0\nsamples = 1\nvalue = [0, 1]"] ;
964 -> 965 ;
966 [label="X[327] <= 9.0\nentropy = 1.0\nsamples = 2\nvalue = [1, 1]"] ;
964 -> 966 ;
967 [label="entropy = 0.0\nsamples = 1\nvalue = [1, 0]"] ;
966 -> 967 ;
968 [label="entropy = 0.0\nsamples = 1\nvalue = [0, 1]"] ;
966 -> 968 ;
969 [label="entropy = 0.0\nsamples = 40\nvalue = [40, 0]"] ;
961 -> 969 ;
970 [label="X[331] <= 39.435\nentropy = 1.0\nsamples = 6\nvalue = [3, 3]"] ;
960 -> 970 ;
971 [label="entropy = 0.0\nsamples = 3\nvalue = [0, 3]"] ;
970 -> 971 ;
972 [label="entropy = 0.0\nsamples = 3\nvalue = [3, 0]"] ;
970 -> 972 ;
973 [label="X[165] <= 568.215\nentropy = 0.0401\nsamples = 464\nvalue = [462, 2]"] ;
951 -> 973 ;
974 [label="entropy = 0.0\nsamples = 364\nvalue = [364, 0]"] ;
973 -> 974 ;
975 [label="X[329] <= 297.585\nentropy = 0.1414\nsamples = 100\nvalue = [98, 2]"] ;
973 -> 975 ;
976 [label="X[191] <= 574.035\nentropy = 0.65\nsamples = 12\nvalue = [10, 2]"] ;
975 -> 976 ;
977 [label="entropy = 0.0\nsamples = 1\nvalue = [0, 1]"] ;
976 -> 977 ;
978 [label="X[12] <= 600.735\nentropy = 0.4395\nsamples = 11\nvalue = [10, 1]"] ;
976 -> 978 ;
979 [label="entropy = 0.0\nsamples = 10\nvalue = [10, 0]"] ;
978 -> 979 ;
980 [label="entropy = 0.0\nsamples = 1\nvalue = [0, 1]"] ;
978 -> 980 ;
981 [label="entropy = 0.0\nsamples = 88\nvalue = [88, 0]"] ;
975 -> 981 ;
982 [label="entropy = 0.0\nsamples = 652\nvalue = [652, 0]"] ;
948 -> 982 ;
983 [label="X[258] <= 0.5\nentropy = 0.6194\nsamples = 13\nvalue = [11, 2]"] ;
943 -> 983 ;
984 [label="entropy = 0.0\nsamples = 10\nvalue = [10, 0]"] ;
983 -> 984 ;
985 [label="X[14] <= 3780.0\nentropy = 0.9183\nsamples = 3\nvalue = [1, 2]"] ;
983 -> 985 ;
986 [label="entropy = 0.0\nsamples = 2\nvalue = [0, 2]"] ;
985 -> 986 ;
987 [label="entropy = 0.0\nsamples = 1\nvalue = [1, 0]"] ;
985 -> 987 ;
988 [label="X[324] <= 22.5\nentropy = 0.3127\nsamples = 71\nvalue = [67, 4]"] ;
942 -> 988 ;
989 [label="entropy = 0.0\nsamples = 48\nvalue = [48, 0]"] ;
988 -> 989 ;
990 [label="X[290] <= 1.5\nentropy = 0.6666\nsamples = 23\nvalue = [19, 4]"] ;
988 -> 990 ;
991 [label="entropy = 0.0\nsamples = 3\nvalue = [0, 3]"] ;
990 -> 991 ;
992 [label="X[91] <= 4.5\nentropy = 0.2864\nsamples = 20\nvalue = [19, 1]"] ;
990 -> 992 ;
993 [label="entropy = 0.0\nsamples = 19\nvalue = [19, 0]"] ;
992 -> 993 ;
994 [label="entropy = 0.0\nsamples = 1\nvalue = [0, 1]"] ;
992 -> 994 ;
995 [label="X[332] <= 82.845\nentropy = 0.0845\nsamples = 10038\nvalue = [9932, 106]"] ;
841 -> 995 ;
996 [label="X[2] <= 25.5\nentropy = 0.0938\nsamples = 8662\nvalue = [8558, 104]"] ;
995 -> 996 ;
997 [label="X[276] <= 16.5\nentropy = 0.0762\nsamples = 6659\nvalue = [6597, 62]"] ;
996 -> 997 ;
998 [label="X[274] <= 13.5\nentropy = 0.0742\nsamples = 6654\nvalue = [6594, 60]"] ;
997 -> 998 ;
999 [label="X[332] <= 2.805\nentropy = 0.0732\nsamples = 6653\nvalue = [6594, 59]"] ;
998 -> 999 ;
1000 [label="X[0] <= 98372.5\nentropy = 0.0895\nsamples = 3794\nvalue = [3751, 43]"] ;
999 -> 1000 ;
1001 [label="X[0] <= 98363.5\nentropy = 0.1074\nsamples = 2468\nvalue = [2433, 35]"] ;
1000 -> 1001 ;
1002 [label="X[369] <= 147565.5938\nentropy = 0.1049\nsamples = 2467\nvalue = [2433, 34]"] ;
1001 -> 1002 ;
1003 [label="X[0] <= 351.0\nentropy = 0.0896\nsamples = 2114\nvalue = [2090, 24]"] ;
1002 -> 1003 ;
1004 [label="X[0] <= 270.0\nentropy = 0.8113\nsamples = 4\nvalue = [3, 1]"] ;
1003 -> 1004 ;
1005 [label="entropy = 0.0\nsamples = 3\nvalue = [3, 0]"] ;
1004 -> 1005 ;
1006 [label="entropy = 0.0\nsamples = 1\nvalue = [0, 1]"] ;
1004 -> 1006 ;
1007 [label="X[0] <= 9492.5\nentropy = 0.0867\nsamples = 2110\nvalue = [2087, 23]"] ;
1003 -> 1007 ;
1008 [label="entropy = 0.0\nsamples = 197\nvalue = [197, 0]"] ;
1007 -> 1008 ;
1009 [label="X[0] <= 9536.5\nentropy = 0.0939\nsamples = 1913\nvalue = [1890, 23]"] ;
1007 -> 1009 ;
1010 [label="entropy = 0.0\nsamples = 1\nvalue = [0, 1]"] ;
1009 -> 1010 ;
1011 [label="X[276] <= 1.5\nentropy = 0.0906\nsamples = 1912\nvalue = [1890, 22]"] ;
1009 -> 1011 ;
1012 [label="X[0] <= 79577.0\nentropy = 0.0824\nsamples = 1855\nvalue = [1836, 19]"] ;
1011 -> 1012 ;
1013 [label="X[77] <= 0.5\nentropy = 0.0647\nsamples = 1441\nvalue = [1430, 11]"] ;
1012 -> 1013 ;
1014 [label="entropy = 0.0\nsamples = 166\nvalue = [166, 0]"] ;
1013 -> 1014 ;
1015 [label="X[327] <= 4.5\nentropy = 0.0716\nsamples = 1275\nvalue = [1264, 11]"] ;
1013 -> 1015 ;
1016 [label="X[0] <= 46336.5\nentropy = 0.0775\nsamples = 1158\nvalue = [1147, 11]"] ;
1015 -> 1016 ;
1017 [label="X[0] <= 46305.0\nentropy = 0.1034\nsamples = 591\nvalue = [583, 8]"] ;
1016 -> 1017 ;
1018 [label="X[330] <= 0.405\nentropy = 0.0929\nsamples = 590\nvalue = [583, 7]"] ;
1017 -> 1018 ;
1019 [label="entropy = 0.0\nsamples = 125\nvalue = [125, 0]"] ;
1018 -> 1019 ;
1020 [label="X[0] <= 16675.0\nentropy = 0.1127\nsamples = 465\nvalue = [458, 7]"] ;
1018 -> 1020 ;
1021 [label="entropy = 0.0\nsamples = 77\nvalue = [77, 0]"] ;
1020 -> 1021 ;
1022 [label="X[0] <= 16701.5\nentropy = 0.1303\nsamples = 388\nvalue = [381, 7]"] ;
1020 -> 1022 ;
1023 [label="entropy = 0.0\nsamples = 1\nvalue = [0, 1]"] ;
1022 -> 1023 ;
1024 [label="X[2] <= 24.5\nentropy = 0.1154\nsamples = 387\nvalue = [381, 6]"] ;
1022 -> 1024 ;
1025 [label="X[330] <= 0.45\nentropy = 0.0427\nsamples = 215\nvalue = [214, 1]"] ;
1024 -> 1025 ;
1026 [label="X[369] <= 73562.75\nentropy = 0.65\nsamples = 6\nvalue = [5, 1]"] ;
1025 -> 1026 ;
1027 [label="X[194] <= 51.0\nentropy = 1.0\nsamples = 2\nvalue = [1, 1]"] ;
1026 -> 1027 ;
1028 [label="entropy = 0.0\nsamples = 1\nvalue = [1, 0]"] ;
1027 -> 1028 ;
1029 [label="entropy = 0.0\nsamples = 1\nvalue = [0, 1]"] ;
1027 -> 1029 ;
1030 [label="entropy = 0.0\nsamples = 4\nvalue = [4, 0]"] ;
1026 -> 1030 ;
1031 [label="entropy = 0.0\nsamples = 209\nvalue = [209, 0]"] ;
1025 -> 1031 ;
1032 [label="X[194] <= 51.0\nentropy = 0.1897\nsamples = 172\nvalue = [167, 5]"] ;
1024 -> 1032 ;
1033 [label="X[369] <= 45323.2031\nentropy = 0.258\nsamples = 115\nvalue = [110, 5]"] ;
1032 -> 1033 ;
1034 [label="X[369] <= 44764.2578\nentropy = 0.5665\nsamples = 15\nvalue = [13, 2]"] ;
1033 -> 1034 ;
1035 [label="X[332] <= 2.625\nentropy = 0.3712\nsamples = 14\nvalue = [13, 1]"] ;
1034 -> 1035 ;
1036 [label="entropy = 0.0\nsamples = 11\nvalue = [11, 0]"] ;
1035 -> 1036 ;
1037 [label="X[0] <= 29510.5\nentropy = 0.9183\nsamples = 3\nvalue = [2, 1]"] ;
1035 -> 1037 ;
1038 [label="entropy = 0.0\nsamples = 2\nvalue = [2, 0]"] ;
1037 -> 1038 ;
1039 [label="entropy = 0.0\nsamples = 1\nvalue = [0, 1]"] ;
1037 -> 1039 ;
1040 [label="entropy = 0.0\nsamples = 1\nvalue = [0, 1]"] ;
1034 -> 1040 ;
1041 [label="X[0] <= 22232.0\nentropy = 0.1944\nsamples = 100\nvalue = [97, 3]"] ;
1033 -> 1041 ;
1042 [label="X[0] <= 21923.5\nentropy = 0.5033\nsamples = 18\nvalue = [16, 2]"] ;
1041 -> 1042 ;
1043 [label="X[0] <= 18612.5\nentropy = 0.3228\nsamples = 17\nvalue = [16, 1]"] ;
1042 -> 1043 ;
1044 [label="X[332] <= 2.445\nentropy = 0.7219\nsamples = 5\nvalue = [4, 1]"] ;
1043 -> 1044 ;
1045 [label="entropy = 0.0\nsamples = 4\nvalue = [4, 0]"] ;
1044 -> 1045 ;
1046 [label="entropy = 0.0\nsamples = 1\nvalue = [0, 1]"] ;
1044 -> 1046 ;
1047 [label="entropy = 0.0\nsamples = 12\nvalue = [12, 0]"] ;
1043 -> 1047 ;
1048 [label="entropy = 0.0\nsamples = 1\nvalue = [0, 1]"] ;
1042 -> 1048 ;
1049 [label="X[369] <= 122628.1172\nentropy = 0.095\nsamples = 82\nvalue = [81, 1]"] ;
1041 -> 1049 ;
1050 [label="entropy = 0.0\nsamples = 76\nvalue = [76, 0]"] ;
1049 -> 1050 ;
1051 [label="X[0] <= 33432.0\nentropy = 0.65\nsamples = 6\nvalue = [5, 1]"] ;
1049 -> 1051 ;
1052 [label="entropy = 0.0\nsamples = 5\nvalue = [5, 0]"] ;
1051 -> 1052 ;
1053 [label="entropy = 0.0\nsamples = 1\nvalue = [0, 1]"] ;
1051 -> 1053 ;
1054 [label="entropy = 0.0\nsamples = 57\nvalue = [57, 0]"] ;
1032 -> 1054 ;
1055 [label="entropy = 0.0\nsamples = 1\nvalue = [0, 1]"] ;
1017 -> 1055 ;
1056 [label="X[369] <= 94294.0156\nentropy = 0.0476\nsamples = 567\nvalue = [564, 3]"] ;
1016 -> 1056 ;
1057 [label="X[369] <= 94179.5547\nentropy = 0.0758\nsamples = 324\nvalue = [321, 3]"] ;
1056 -> 1057 ;
1058 [label="X[0] <= 65401.0\nentropy = 0.0543\nsamples = 323\nvalue = [321, 2]"] ;
1057 -> 1058 ;
1059 [label="entropy = 0.0\nsamples = 186\nvalue = [186, 0]"] ;
1058 -> 1059 ;
1060 [label="X[0] <= 65456.5\nentropy = 0.1099\nsamples = 137\nvalue = [135, 2]"] ;
1058 -> 1060 ;
1061 [label="entropy = 0.0\nsamples = 1\nvalue = [0, 1]"] ;
1060 -> 1061 ;
1062 [label="X[332] <= 2.175\nentropy = 0.0627\nsamples = 136\nvalue = [135, 1]"] ;
1060 -> 1062 ;
1063 [label="X[330] <= 0.495\nentropy = 0.1793\nsamples = 37\nvalue = [36, 1]"] ;
1062 -> 1063 ;
1064 [label="entropy = 0.0\nsamples = 32\nvalue = [32, 0]"] ;
1063 -> 1064 ;
1065 [label="X[369] <= 61905.5234\nentropy = 0.7219\nsamples = 5\nvalue = [4, 1]"] ;
1063 -> 1065 ;
1066 [label="X[369] <= 52455.7656\nentropy = 1.0\nsamples = 2\nvalue = [1, 1]"] ;
1065 -> 1066 ;
1067 [label="entropy = 0.0\nsamples = 1\nvalue = [1, 0]"] ;
1066 -> 1067 ;
1068 [label="entropy = 0.0\nsamples = 1\nvalue = [0, 1]"] ;
1066 -> 1068 ;
1069 [label="entropy = 0.0\nsamples = 3\nvalue = [3, 0]"] ;
1065 -> 1069 ;
1070 [label="entropy = 0.0\nsamples = 99\nvalue = [99, 0]"] ;
1062 -> 1070 ;
1071 [label="entropy = 0.0\nsamples = 1\nvalue = [0, 1]"] ;
1057 -> 1071 ;
1072 [label="entropy = 0.0\nsamples = 243\nvalue = [243, 0]"] ;
1056 -> 1072 ;
1073 [label="entropy = 0.0\nsamples = 117\nvalue = [117, 0]"] ;
1015 -> 1073 ;
1074 [label="X[0] <= 79598.0\nentropy = 0.1376\nsamples = 414\nvalue = [406, 8]"] ;
1012 -> 1074 ;
1075 [label="entropy = 0.0\nsamples = 1\nvalue = [0, 1]"] ;
1074 -> 1075 ;
1076 [label="X[277] <= 1.5\nentropy = 0.1239\nsamples = 413\nvalue = [406, 7]"] ;
1074 -> 1076 ;
1077 [label="X[0] <= 86680.0\nentropy = 0.0962\nsamples = 404\nvalue = [399, 5]"] ;
1076 -> 1077 ;
1078 [label="X[0] <= 85138.5\nentropy = 0.2066\nsamples = 154\nvalue = [149, 5]"] ;
1077 -> 1078 ;
1079 [label="X[330] <= 0.105\nentropy = 0.0686\nsamples = 122\nvalue = [121, 1]"] ;
1078 -> 1079 ;
1080 [label="X[290] <= 0.5\nentropy = 0.7219\nsamples = 5\nvalue = [4, 1]"] ;
1079 -> 1080 ;
1081 [label="entropy = 0.0\nsamples = 1\nvalue = [0, 1]"] ;
1080 -> 1081 ;
1082 [label="entropy = 0.0\nsamples = 4\nvalue = [4, 0]"] ;
1080 -> 1082 ;
1083 [label="entropy = 0.0\nsamples = 117\nvalue = [117, 0]"] ;
1079 -> 1083 ;
1084 [label="X[0] <= 85331.0\nentropy = 0.5436\nsamples = 32\nvalue = [28, 4]"] ;
1078 -> 1084 ;
1085 [label="X[332] <= 2.475\nentropy = 0.9183\nsamples = 3\nvalue = [1, 2]"] ;
1084 -> 1085 ;
1086 [label="entropy = 0.0\nsamples = 1\nvalue = [1, 0]"] ;
1085 -> 1086 ;
1087 [label="entropy = 0.0\nsamples = 2\nvalue = [0, 2]"] ;
1085 -> 1087 ;
1088 [label="X[0] <= 86555.5\nentropy = 0.3621\nsamples = 29\nvalue = [27, 2]"] ;
1084 -> 1088 ;
1089 [label="X[152] <= 1.5\nentropy = 0.2223\nsamples = 28\nvalue = [27, 1]"] ;
1088 -> 1089 ;
1090 [label="X[369] <= 109362.5078\nentropy = 0.9183\nsamples = 3\nvalue = [2, 1]"] ;
1089 -> 1090 ;
1091 [label="entropy = 0.0\nsamples = 1\nvalue = [0, 1]"] ;
1090 -> 1091 ;
1092 [label="entropy = 0.0\nsamples = 2\nvalue = [2, 0]"] ;
1090 -> 1092 ;
1093 [label="entropy = 0.0\nsamples = 25\nvalue = [25, 0]"] ;
1089 -> 1093 ;
1094 [label="entropy = 0.0\nsamples = 1\nvalue = [0, 1]"] ;
1088 -> 1094 ;
1095 [label="entropy = 0.0\nsamples = 250\nvalue = [250, 0]"] ;
1077 -> 1095 ;
1096 [label="X[330] <= 0.87\nentropy = 0.7642\nsamples = 9\nvalue = [7, 2]"] ;
1076 -> 1096 ;
1097 [label="X[369] <= 95097.4844\nentropy = 1.0\nsamples = 4\nvalue = [2, 2]"] ;
1096 -> 1097 ;
1098 [label="entropy = 0.0\nsamples = 2\nvalue = [2, 0]"] ;
1097 -> 1098 ;
1099 [label="entropy = 0.0\nsamples = 2\nvalue = [0, 2]"] ;
1097 -> 1099 ;
1100 [label="entropy = 0.0\nsamples = 5\nvalue = [5, 0]"] ;
1096 -> 1100 ;
1101 [label="X[369] <= 66137.8359\nentropy = 0.2975\nsamples = 57\nvalue = [54, 3]"] ;
1011 -> 1101 ;
1102 [label="X[369] <= 49005.4219\nentropy = 0.65\nsamples = 18\nvalue = [15, 3]"] ;
1101 -> 1102 ;
1103 [label="entropy = 0.0\nsamples = 8\nvalue = [8, 0]"] ;
1102 -> 1103 ;
1104 [label="X[327] <= 15.0\nentropy = 0.8813\nsamples = 10\nvalue = [7, 3]"] ;
1102 -> 1104 ;
1105 [label="X[332] <= 2.625\nentropy = 0.7642\nsamples = 9\nvalue = [7, 2]"] ;
1104 -> 1105 ;
1106 [label="entropy = 0.0\nsamples = 5\nvalue = [5, 0]"] ;
1105 -> 1106 ;
1107 [label="X[369] <= 52564.9805\nentropy = 1.0\nsamples = 4\nvalue = [2, 2]"] ;
1105 -> 1107 ;
1108 [label="entropy = 0.0\nsamples = 1\nvalue = [0, 1]"] ;
1107 -> 1108 ;
1109 [label="X[332] <= 2.67\nentropy = 0.9183\nsamples = 3\nvalue = [2, 1]"] ;
1107 -> 1109 ;
1110 [label="entropy = 0.0\nsamples = 1\nvalue = [0, 1]"] ;
1109 -> 1110 ;
1111 [label="entropy = 0.0\nsamples = 2\nvalue = [2, 0]"] ;
1109 -> 1111 ;
1112 [label="entropy = 0.0\nsamples = 1\nvalue = [0, 1]"] ;
1104 -> 1112 ;
1113 [label="entropy = 0.0\nsamples = 39\nvalue = [39, 0]"] ;
1101 -> 1113 ;
1114 [label="X[369] <= 147704.2031\nentropy = 0.1859\nsamples = 353\nvalue = [343, 10]"] ;
1002 -> 1114 ;
1115 [label="entropy = 0.0\nsamples = 1\nvalue = [0, 1]"] ;
1114 -> 1115 ;
1116 [label="X[0] <= 19302.0\nentropy = 0.1717\nsamples = 352\nvalue = [343, 9]"] ;
1114 -> 1116 ;
1117 [label="entropy = 0.0\nsamples = 61\nvalue = [61, 0]"] ;
1116 -> 1117 ;
1118 [label="X[0] <= 19578.5\nentropy = 0.199\nsamples = 291\nvalue = [282, 9]"] ;
1116 -> 1118 ;
1119 [label="entropy = 0.0\nsamples = 1\nvalue = [0, 1]"] ;
1118 -> 1119 ;
1120 [label="X[0] <= 34445.0\nentropy = 0.1821\nsamples = 290\nvalue = [282, 8]"] ;
1118 -> 1120 ;
1121 [label="X[0] <= 33966.0\nentropy = 0.3966\nsamples = 51\nvalue = [47, 4]"] ;
1120 -> 1121 ;
1122 [label="X[332] <= 2.325\nentropy = 0.246\nsamples = 49\nvalue = [47, 2]"] ;
1121 -> 1122 ;
1123 [label="X[330] <= 0.84\nentropy = 0.4855\nsamples = 19\nvalue = [17, 2]"] ;
1122 -> 1123 ;
1124 [label="entropy = 0.0\nsamples = 14\nvalue = [14, 0]"] ;
1123 -> 1124 ;
1125 [label="X[155] <= 1.5\nentropy = 0.971\nsamples = 5\nvalue = [3, 2]"] ;
1123 -> 1125 ;
1126 [label="entropy = 0.0\nsamples = 2\nvalue = [2, 0]"] ;
1125 -> 1126 ;
1127 [label="X[0] <= 23041.5\nentropy = 0.9183\nsamples = 3\nvalue = [1, 2]"] ;
1125 -> 1127 ;
1128 [label="entropy = 0.0\nsamples = 1\nvalue = [1, 0]"] ;
1127 -> 1128 ;
1129 [label="entropy = 0.0\nsamples = 2\nvalue = [0, 2]"] ;
1127 -> 1129 ;
1130 [label="entropy = 0.0\nsamples = 30\nvalue = [30, 0]"] ;
1122 -> 1130 ;
1131 [label="entropy = 0.0\nsamples = 2\nvalue = [0, 2]"] ;
1121 -> 1131 ;
1132 [label="X[0] <= 75057.5\nentropy = 0.1227\nsamples = 239\nvalue = [235, 4]"] ;
1120 -> 1132 ;
1133 [label="entropy = 0.0\nsamples = 146\nvalue = [146, 0]"] ;
1132 -> 1133 ;
1134 [label="X[0] <= 75230.0\nentropy = 0.2559\nsamples = 93\nvalue = [89, 4]"] ;
1132 -> 1134 ;
1135 [label="entropy = 0.0\nsamples = 1\nvalue = [0, 1]"] ;
1134 -> 1135 ;
1136 [label="X[80] <= 0.5\nentropy = 0.2073\nsamples = 92\nvalue = [89, 3]"] ;
1134 -> 1136 ;
1137 [label="X[330] <= 2.085\nentropy = 0.5917\nsamples = 14\nvalue = [12, 2]"] ;
1136 -> 1137 ;
1138 [label="entropy = 0.0\nsamples = 9\nvalue = [9, 0]"] ;
1137 -> 1138 ;
1139 [label="X[330] <= 2.145\nentropy = 0.971\nsamples = 5\nvalue = [3, 2]"] ;
1137 -> 1139 ;
1140 [label="entropy = 0.0\nsamples = 1\nvalue = [0, 1]"] ;
1139 -> 1140 ;
1141 [label="X[0] <= 93264.0\nentropy = 0.8113\nsamples = 4\nvalue = [3, 1]"] ;
1139 -> 1141 ;
1142 [label="entropy = 0.0\nsamples = 2\nvalue = [2, 0]"] ;
1141 -> 1142 ;
1143 [label="X[0] <= 94679.0\nentropy = 1.0\nsamples = 2\nvalue = [1, 1]"] ;
1141 -> 1143 ;
1144 [label="entropy = 0.0\nsamples = 1\nvalue = [0, 1]"] ;
1143 -> 1144 ;
1145 [label="entropy = 0.0\nsamples = 1\nvalue = [1, 0]"] ;
1143 -> 1145 ;
1146 [label="X[369] <= 160911.8438\nentropy = 0.099\nsamples = 78\nvalue = [77, 1]"] ;
1136 -> 1146 ;
1147 [label="X[369] <= 160375.8594\nentropy = 0.3373\nsamples = 16\nvalue = [15, 1]"] ;
1146 -> 1147 ;
1148 [label="entropy = 0.0\nsamples = 15\nvalue = [15, 0]"] ;
1147 -> 1148 ;
1149 [label="entropy = 0.0\nsamples = 1\nvalue = [0, 1]"] ;
1147 -> 1149 ;
1150 [label="entropy = 0.0\nsamples = 62\nvalue = [62, 0]"] ;
1146 -> 1150 ;
1151 [label="entropy = 0.0\nsamples = 1\nvalue = [0, 1]"] ;
1001 -> 1151 ;
1152 [label="X[0] <= 116096.0\nentropy = 0.0532\nsamples = 1326\nvalue = [1318, 8]"] ;
1000 -> 1152 ;
1153 [label="entropy = 0.0\nsamples = 445\nvalue = [445, 0]"] ;
1152 -> 1153 ;
1154 [label="X[0] <= 116116.5\nentropy = 0.0746\nsamples = 881\nvalue = [873, 8]"] ;
1152 -> 1154 ;
1155 [label="entropy = 0.0\nsamples = 1\nvalue = [0, 1]"] ;
1154 -> 1155 ;
1156 [label="X[369] <= 50190.4375\nentropy = 0.0669\nsamples = 880\nvalue = [873, 7]"] ;
1154 -> 1156 ;
1157 [label="X[369] <= 50096.2188\nentropy = 0.2069\nsamples = 123\nvalue = [119, 4]"] ;
1156 -> 1157 ;
1158 [label="X[2] <= 24.5\nentropy = 0.1665\nsamples = 122\nvalue = [119, 3]"] ;
1157 -> 1158 ;
1159 [label="entropy = 0.0\nsamples = 66\nvalue = [66, 0]"] ;
1158 -> 1159 ;
1160 [label="X[369] <= 39662.1172\nentropy = 0.3014\nsamples = 56\nvalue = [53, 3]"] ;
1158 -> 1160 ;
1161 [label="X[369] <= 39516.75\nentropy = 0.406\nsamples = 37\nvalue = [34, 3]"] ;
1160 -> 1161 ;
1162 [label="X[0] <= 126204.0\nentropy = 0.3095\nsamples = 36\nvalue = [34, 2]"] ;
1161 -> 1162 ;
1163 [label="X[0] <= 122919.5\nentropy = 0.7642\nsamples = 9\nvalue = [7, 2]"] ;
1162 -> 1163 ;
1164 [label="entropy = 0.0\nsamples = 6\nvalue = [6, 0]"] ;
1163 -> 1164 ;
1165 [label="X[327] <= 1.5\nentropy = 0.9183\nsamples = 3\nvalue = [1, 2]"] ;
1163 -> 1165 ;
1166 [label="entropy = 0.0\nsamples = 2\nvalue = [0, 2]"] ;
1165 -> 1166 ;
1167 [label="entropy = 0.0\nsamples = 1\nvalue = [1, 0]"] ;
1165 -> 1167 ;
1168 [label="entropy = 0.0\nsamples = 27\nvalue = [27, 0]"] ;
1162 -> 1168 ;
1169 [label="entropy = 0.0\nsamples = 1\nvalue = [0, 1]"] ;
1161 -> 1169 ;
1170 [label="entropy = 0.0\nsamples = 19\nvalue = [19, 0]"] ;
1160 -> 1170 ;
1171 [label="entropy = 0.0\nsamples = 1\nvalue = [0, 1]"] ;
1157 -> 1171 ;
1172 [label="X[325] <= 1.5\nentropy = 0.0373\nsamples = 757\nvalue = [754, 3]"] ;
1156 -> 1172 ;
1173 [label="entropy = 0.0\nsamples = 660\nvalue = [660, 0]"] ;
1172 -> 1173 ;
1174 [label="X[0] <= 117025.0\nentropy = 0.199\nsamples = 97\nvalue = [94, 3]"] ;
1172 -> 1174 ;
1175 [label="X[0] <= 116867.0\nentropy = 1.0\nsamples = 2\nvalue = [1, 1]"] ;
1174 -> 1175 ;
1176 [label="entropy = 0.0\nsamples = 1\nvalue = [1, 0]"] ;
1175 -> 1176 ;
1177 [label="entropy = 0.0\nsamples = 1\nvalue = [0, 1]"] ;
1175 -> 1177 ;
1178 [label="X[277] <= 1.5\nentropy = 0.1473\nsamples = 95\nvalue = [93, 2]"] ;
1174 -> 1178 ;
1179 [label="X[369] <= 121324.4844\nentropy = 0.085\nsamples = 94\nvalue = [93, 1]"] ;
1178 -> 1179 ;
1180 [label="entropy = 0.0\nsamples = 73\nvalue = [73, 0]"] ;
1179 -> 1180 ;
